father 0.2525157034397125 0.13417315483093262 -0.31842899322509766 -0.2850651443004608 -0.1035759449005127 -0.10149804502725601 0.22492344677448273 0.29933130741119385 0.21484537422657013 -0.3805597126483917 0.12459421157836914 0.005210454110056162 0.14841723442077637 0.20063316822052002 -0.44522061944007874 -0.3984724283218384 0.03350480645895004 0.23134088516235352 -0.003896176815032959 0.0962626039981842 -0.13172654807567596 -0.2236311286687851 0.14655061066150665 0.22543728351593018 -0.0699620246887207 0.36886700987815857 -0.19278991222381592 0.03542071208357811 -0.19174699485301971 -0.10756760835647583 0.03570107743144035 -0.05881047248840332 0.03412926569581032 0.1423083394765854 -0.31824174523353577 -0.277980238199234 0.013341228477656841 0.007398422807455063 -0.4417356550693512 0.02004799246788025 -0.19624178111553192 -0.1678413301706314 0.028537103906273842 -0.01986316777765751 -0.0031368210911750793 -0.1333642601966858 -0.35202300548553467 0.1440485417842865 -0.06048029661178589 0.06376010179519653 -0.01750616542994976 -0.01694224216043949 -0.21134060621261597 0.29728269577026367 0.2768639326095581 0.16125279664993286 0.12960292398929596 0.20455962419509888 -0.08627518266439438 -0.1579216718673706 0.06381615251302719 0.24788343906402588 0.20492114126682281 -0.07160111516714096 0.3563133180141449 0.3219696879386902 0.13350902497768402 0.25158485770225525 -0.631503164768219 0.22423309087753296 -0.2850913107395172 -0.11866315454244614 0.15037350356578827 0.05676117539405823 0.34460189938545227 0.09755053371191025 -0.2743123471736908 0.1573798656463623 0.04312273859977722 0.15640538930892944 0.04321284964680672 0.08918086439371109 -0.09235828369855881 0.2581574618816376 -0.028520921245217323 -0.028070718050003052 -0.008914011530578136 0.08375956863164902 0.15790382027626038 0.1372978389263153 0.09137121587991714 -0.018452664837241173 -0.06321422010660172 0.022906258702278137 -0.023473670706152916 -0.08680932968854904 -0.11527850478887558 0.07548459619283676 0.25087061524391174 -0.037610653787851334 -0.1844448298215866 0.14697419106960297 -0.00961531512439251 0.31350767612457275 -0.31834810972213745 -0.2022441178560257 0.1775447279214859 0.2015446424484253 0.12739261984825134 -0.808875322341919 0.10611554980278015 0.13975630700588226 0.1730046421289444 -0.04188333824276924 -0.2414957731962204 -0.03373771905899048 0.2729565501213074 0.007509069051593542 -0.04374096915125847 -0.04836432635784149 -0.3610776960849762 0.08926960080862045 0.10987088829278946 0.49451562762260437 -0.15437276661396027 0.16549134254455566 -0.05611707642674446 -0.09860736131668091 0.14450721442699432 -0.3119278848171234 -0.2481631636619568 0.4273686707019806 0.1584801822900772 0.26404207944869995 -0.19667309522628784 0.32072892785072327 0.12804915010929108 0.11291041970252991 -0.3568902015686035 0.07731414586305618 -0.28782668709754944 0.6000497937202454 -0.7911245822906494 -0.09085609763860703 0.3769437372684479 0.0513976626098156 0.24689237773418427 -0.07216287404298782 0.08569804579019547 0.03653371334075928 0.372883677482605 0.00746329128742218 -0.048238396644592285 -0.3311086595058441 -0.35754910111427307 0.058790791779756546 -0.17161667346954346 0.1523396372795105 0.40174779295921326 0.4626258313655853 0.4983888566493988 0.23841910064220428 0.032699160277843475 0.38886559009552 -0.3445512354373932 0.24307620525360107 -0.11914537101984024 0.15420755743980408 0.05626572668552399 -0.007293075323104858 -0.2905620038509369 -0.33020564913749695 0.004224369768053293 0.019886648282408714 -0.20302742719650269 0.20930947363376617 0.10503540188074112 0.08236593753099442 0.00046468773507513106 -0.24247586727142334 -3.5543205738067627 0.014886538498103619 0.07003702223300934 0.060764532536268234 0.0837976336479187 0.09043056517839432 -0.18751607835292816 -0.39228442311286926 0.010483096353709698 -0.19564394652843475 -0.19570888578891754 -0.12190914154052734 -0.3024000823497772 0.20638827979564667 0.41977766156196594 -0.33641839027404785 -0.01815761812031269 -0.19831526279449463 -0.03397086635231972 -0.06124067306518555 -0.20616908371448517 -0.34333911538124084 -0.08585803955793381 0.42563867568969727 -0.2301091104745865 1.1143661737442017 0.035065893083810806 -0.20233118534088135 0.3825577199459076 0.13710139691829681 -0.4667067229747772 0.028255879878997803 0.06348979473114014 -0.1684543639421463 0.04748271778225899 -0.2428700178861618 0.08133649080991745 -0.3164203464984894 -0.28493455052375793 -0.06622017920017242 -0.04962621256709099 0.02918771468102932 -0.007234737277030945 0.17551928758621216 -0.2789233922958374 -0.3975604772567749 0.4922623634338379 0.2257786989212036 0.16044504940509796 -0.4750540256500244 0.1045931801199913 -0.2754878103733063 0.3572475016117096 0.25083187222480774 -0.2710544168949127 -0.022003985941410065 0.013835303485393524 -0.05879373848438263 -0.21552425622940063 -0.1824161261320114 -0.28020182251930237 0.2482106238603592 0.13383746147155762 0.23069889843463898 -0.21025432646274567 0.11742032319307327 0.232903853058815 0.17366190254688263 0.18564407527446747 -0.11256786435842514 -0.04077770188450813 -0.5755587816238403 0.25949665904045105 -0.2742941081523895 0.1093333438038826 -0.05667458102107048 -0.007722832262516022 -0.009283334016799927 0.31696203351020813 -0.21460378170013428 0.19412283599376678 0.15981070697307587 0.534247875213623 -0.01738104782998562 -0.3480335772037506 0.1823754757642746 0.17710816860198975 0.06682199984788895 0.10812190175056458 0.02976394258439541 -0.0687638521194458 -0.09094775468111038 -0.23288361728191376 -1.3398981094360352 0.12686382234096527 -0.562251627445221 0.4410881996154785 0.0560927577316761 0.1533709317445755 -0.2223103642463684 -0.29577645659446716 0.1617753654718399 0.00021234650921542197 0.501143217086792 0.12163188308477402 -0.3664236068725586 -0.19855965673923492 -0.44167813658714294 0.25020501017570496 -0.38964414596557617 -0.3695409297943115 0.10540634393692017 0.03848692774772644 0.060212742537260056 0.3311469256877899 0.1534540057182312 0.3973531424999237 -0.22417052090168 -0.2780202627182007 -0.14272809028625488 -0.2611146867275238 -0.36244213581085205 -0.08593163639307022 -0.16416293382644653 0.03281937912106514 0.3144620954990387 0.027321865782141685 0.04335150122642517 -1.875655174255371 -0.2650708854198456 -0.1307128667831421 -0.25294551253318787 0.16279540956020355 -0.08248195052146912 0.238125279545784 -0.30686867237091064 -0.14121444523334503 0.10519816726446152 0.16196899116039276 -0.13124223053455353 0.3498753309249878 0.35188865661621094 0.2382110357284546 0.1908113956451416 -0.09342635422945023 -0.21954457461833954 -0.2222125083208084 0.04791897535324097 -0.137256920337677 0.15662163496017456 0.2725803554058075 -0.2030237466096878 0.3006437122821808 0.18719512224197388 -0.5765132308006287 -0.009711693041026592 -0.4489988386631012 -0.006848238408565521 -0.1735810786485672 -0.32723483443260193 -0.17710758745670319 -0.2877297103404999 -0.135701522231102 -0.3267644941806793 -0.10116185992956161 0.1813022643327713 0.6314648985862732 0.08602398633956909 0.12656930088996887 0.36263778805732727 0.13206399977207184 0.08901397138834 -0.14218972623348236 0.16290736198425293 -0.277980238199234 -0.4461921453475952 -0.052222441881895065 0.39544638991355896 0.011981328018009663 0.07869277149438858 0.2919025421142578 -0.186415433883667 -0.005499780178070068 -0.3207736909389496 0.17488448321819305 0.01278142910450697 -0.14512725174427032 -0.26491034030914307 0.09274124354124069 -0.17248646914958954 -0.008131097070872784 0.23912829160690308 -0.22096209228038788 -0.06664424389600754 -0.05617043003439903 -0.24764853715896606 0.10155039280653 0.010927199386060238 -0.07323140650987625 -0.21346156299114227 -0.1747359037399292 -0.9540424346923828 -0.5592219829559326 -0.13269127905368805 -0.33400413393974304 0.005008781794458628 0.273571640253067 -0.09982872009277344 0.13001157343387604 0.07709939032793045 0.31877633929252625 0.27507856488227844 0.04449645057320595 0.3413776457309723 0.05220028758049011 -0.3236446678638458 -0.12145593017339706 0.008149802684783936 0.2480025440454483 0.13623245060443878 0.32467666268348694 0.04074888303875923 0.13461925089359283 0.2224491685628891 0.164570614695549 -0.31737014651298523 0.20642231404781342 0.05625954642891884 -0.3645593225955963 -0.14451365172863007 0.1212848350405693 0.06728531420230865 -0.030361337587237358 0.1425143927335739 -0.607534646987915 0.10122722387313843 -0.23171937465667725 0.11020290851593018 0.11741796880960464 -0.2588428556919098 0.136070117354393 -0.007562408689409494 0.2249661087989807 -0.2293977290391922 -0.11433693021535873 0.48733940720558167 0.11846175044775009 0.360782653093338 0.23325081169605255 -0.0032362143974751234 -0.1109229028224945 0.09123889356851578 -0.027960723266005516 -0.016811145469546318 0.15392762422561646 -0.1298927664756775 -0.13060881197452545 -0.08448325842618942 0.00385209359228611 0.10533786565065384 0.12442199140787125 -0.5046675205230713 -0.06105409562587738 -0.07239093631505966 0.10628721863031387 0.07489567250013351 0.16904430091381073 0.16209155321121216 0.1965501457452774 0.15957997739315033 -0.4251525402069092 0.07568072527647018 0.12041196972131729 0.30326035618782043 -0.21575812995433807 0.3945409059524536 0.3298400342464447 0.22830872237682343 0.12459101527929306 -0.17375780642032623 0.2968318462371826 -0.17768549919128418 -0.04189085587859154 -0.35267195105552673 0.2695747911930084 -0.16805987060070038 -0.4305160939693451 0.31186482310295105 -0.24573059380054474 -0.002699377713724971 -0.5186523795127869 0.05158982798457146 -0.030346551910042763 0.21618302166461945 0.4644955098628998 -0.2583269774913788 -0.2934718430042267 0.23328764736652374 0.46763095259666443 -0.1686418205499649 0.134032741189003 -0.3008266091346741 -0.17229485511779785 0.22640995681285858 -0.09237071126699448 -0.14292855560779572 0.23049211502075195 0.07792723178863525 0.04357991740107536 -0.3563978970050812 0.22447924315929413 0.16975955665111542 0.13864652812480927 0.15839783847332 -0.22034941613674164 -0.3682718276977539 0.21263454854488373 0.42813268303871155 0.10475078970193863 -0.3591156005859375 -0.2227439284324646 -0.12737205624580383 -0.3621692657470703 0.23683826625347137 0.37623539566993713 -0.030283985659480095 0.2990058958530426 0.30769407749176025 0.11631008237600327 0.008199711330235004 -0.47149232029914856 -0.0012632558355107903 0.11290440708398819 -0.017269698902964592 0.2877459228038788 0.1274968683719635 -0.4218730032444 -0.07130078226327896 -0.00730321928858757 -0.390211820602417 -0.3995474874973297 -0.04397822543978691 -0.052413005381822586 0.040339499711990356 0.2265114039182663 0.30372539162635803 0.25850483775138855 -0.2618018090724945 -0.16956032812595367 -0.24068588018417358 0.13110573589801788 -0.02284846641123295 0.27992162108421326 -0.05855761095881462 -0.31097733974456787 -0.23956669867038727 -0.3822194039821625 0.012076735496520996 0.0058127641677856445 0.29236045479774475 -0.050123054534196854 0.040858734399080276 0.3570033311843872 0.05505412817001343 -0.02367415465414524 0.19428761303424835 0.15114957094192505 0.12792378664016724 0.09142444282770157 -0.14146894216537476 -0.1710854172706604 -0.0417092889547348 0.23694723844528198 -0.2949790954589844 0.05539819225668907 0.36681973934173584 0.22176392376422882 0.10067272186279297 -3.104222196270712e-05 -0.03373388573527336 0.11407852172851562 -0.35748565196990967 -0.0006430645589716733 -0.5580298900604248 -0.2715792953968048 0.10364127159118652 0.06379228830337524 0.11284556239843369 -0.11948329210281372 0.15894176065921783 0.1899828165769577 0.06535301357507706 0.1688164472579956 0.23065084218978882 0.04568006470799446 -0.020230941474437714 0.030009305104613304 0.3011972904205322 -0.3657086193561554 0.12393677979707718 -0.04120825603604317 0.17497597634792328 -0.369281142950058 0.017393529415130615 0.2701910734176636 0.003838191507384181 -0.25541064143180847 -0.028982803225517273 0.9385058283805847 0.4854012727737427 -0.10433123260736465 -0.13586656749248505 0.05157827213406563 -0.27272623777389526 -0.11514726281166077 0.20031161606311798 -0.0884963870048523 -0.05491616949439049 0.1591929793357849 0.021631041541695595 -0.13990134000778198 0.34006133675575256 0.01827321946620941 0.05485885217785835 -0.024597905576229095 0.013769954442977905 -0.489784836769104 0.11710106581449509 -0.014215151779353619 0.5684559345245361 0.09700237959623337 0.010413117706775665 -0.058631669729948044 0.19202028214931488 0.1099647656083107 -0.14692509174346924 0.018076637759804726 0.23103725910186768 -0.14074335992336273 -0.15801440179347992 0.1622849553823471 0.41991785168647766 -0.7286890149116516 0.034178540110588074 -0.017894761636853218 -0.5152989029884338 -0.02133067511022091 0.16908712685108185 0.06465741991996765 -0.023662125691771507 0.15843690931797028 0.0033131614327430725 0.22060616314411163 0.2671187222003937 -0.45118284225463867 -0.24715852737426758 -0.128666952252388 0.08687511831521988 0.14538659155368805 0.27231544256210327 -0.04399821534752846 0.2465447336435318 0.23013935983181 -0.20816028118133545 0.14014559984207153 -0.05867350101470947 -0.08390796929597855 -0.09728006273508072 0.1554843932390213 0.3094678223133087 0.2791823446750641 0.07821600884199142 0.28308165073394775 -0.06877131760120392 -0.0963258221745491 0.09153717756271362 0.15005438029766083 0.03362066671252251 0.20115332305431366 -0.05055953562259674 -0.13981391489505768 0.16200731694698334 -0.3980698883533478 0.03977580368518829 0.37951159477233887 0.06328418850898743 -0.1993868350982666 -1.3151334524154663 -0.15096527338027954 -0.32060331106185913 -0.007973313331604004 -0.2604365348815918 0.3783057630062103 0.42198991775512695 0.15002982318401337 -0.3707085847854614 -0.31034210324287415 0.1654723435640335 0.3199212849140167 0.1655983328819275 -0.10161260515451431 0.021330296993255615 0.14568932354450226 0.3342329263687134 -0.12274887412786484 0.06770164519548416 -0.279984712600708 -0.21874134242534637 0.11465799808502197 -0.10387605428695679 -0.2742611765861511 -0.21632032096385956 0.17354600131511688 -0.33451393246650696 -0.21753768622875214 -0.23876537382602692 0.02293488197028637 -0.05562673136591911 0.33324912190437317 -0.30394434928894043 0.14536979794502258 -0.15824417769908905 0.07718665897846222 -0.07008395344018936 0.09809700399637222 -0.11869683861732483 0.24403099715709686 0.1954241394996643 0.5653455853462219 -0.12543383240699768 -0.3345331847667694 0.17647035419940948 0.13850754499435425 -0.08848943561315536 0.35409197211265564 0.04704977944493294 -0.2437603920698166 -0.29071244597435 -0.05123037099838257 -0.014652485959231853 -1.4181766510009766 0.29968345165252686 -0.08693752437829971 0.11774853616952896 0.13775745034217834 0.06209568306803703 -0.1387830227613449 -0.4976063072681427 0.1609199494123459 -0.012944390065968037 0.2745688855648041 0.1522851139307022 -0.19823908805847168 -0.2610836327075958 -0.1477334350347519 0.4392600953578949 -0.07863226532936096 -0.14408855140209198 -0.010371814481914043 0.05884884297847748 0.20515911281108856 -0.1718369722366333 0.014280061237514019 -0.01807844638824463 0.1909216195344925 -0.2138807326555252 0.2135206013917923 -0.548027753829956 -0.16666357219219208 0.024268941953778267 0.30766579508781433 0.10261019319295883 -2.9347598552703857 -0.25521647930145264 0.07327350229024887 -0.20101815462112427 0.1756821870803833 -0.16776008903980255 0.22810302674770355 -0.062296267598867416 0.11122119426727295 -0.3018094003200531 0.16046036779880524 -0.43484392762184143 -0.09161465615034103 0.054514992982149124 0.162090003490448 -0.04561880603432655
mother 0.32632720470428467 0.024962211027741432 -0.27112889289855957 -0.12309036403894424 -0.11699236184358597 -0.12983854115009308 0.20398230850696564 0.16110320389270782 0.1289874166250229 -0.23787684738636017 0.14297881722450256 0.0004135171475354582 0.1580100804567337 0.14352943003177643 -0.5076958537101746 -0.32439470291137695 0.13184402883052826 0.2528437674045563 -0.0640500858426094 0.09859894961118698 -0.010137478820979595 -0.18575553596019745 0.129904642701149 0.16621731221675873 -0.0771789625287056 0.29774048924446106 -0.15901392698287964 0.046646904200315475 -0.09171419590711594 -0.16186825931072235 0.01459409762173891 -0.14629840850830078 0.0216829776763916 0.2813417911529541 -0.26821091771125793 -0.2533918023109436 0.030960917472839355 0.14202266931533813 -0.33201101422309875 -0.1239059790968895 -0.350443571805954 -0.17162080109119415 -0.005578001495450735 0.05872902274131775 0.10392296314239502 -0.17405442893505096 -0.4935459792613983 0.07350330799818039 0.0019509842386469245 0.2384800910949707 -0.1036592423915863 0.04585430026054382 0.003050481202080846 0.3149055242538452 0.21410612761974335 0.06688690185546875 0.20262622833251953 0.0578935332596302 -0.06641118228435516 -0.14457891881465912 0.0630134642124176 0.20072901248931885 0.07227345556020737 0.04175761714577675 0.26028913259506226 0.332781046628952 0.09365350753068924 0.09449074417352676 -0.5725600123405457 0.2730032205581665 -0.20738844573497772 -0.29363763332366943 0.20535750687122345 0.05379778519272804 0.14907211065292358 0.13056926429271698 -0.23770366609096527 0.15568798780441284 0.18111418187618256 0.06682664155960083 0.07296963781118393 0.019678233191370964 -0.0033125963527709246 0.10645686835050583 0.0047036209143698215 -0.07377921789884567 0.0624423511326313 0.014654611237347126 0.019572734832763672 0.17142896354198456 0.06749335676431656 -0.09366977214813232 -0.015533114783465862 0.041593559086322784 -0.036808762699365616 -0.13047747313976288 -0.14912812411785126 -0.005455163773149252 0.13447682559490204 -0.11904896050691605 -0.03881574794650078 -0.023305149748921394 -0.05913354083895683 0.35581037402153015 -0.27740147709846497 -0.2391345500946045 0.03194393590092659 0.06729503720998764 0.07796553522348404 -0.6907140612602234 0.17503683269023895 0.07270640879869461 0.19482304155826569 -0.19006983935832977 -0.2565971910953522 -0.02134222723543644 0.1737290769815445 -0.05985497310757637 0.05744655802845955 0.008460928685963154 -0.2858785092830658 -0.03959304094314575 0.17035114765167236 0.442661851644516 -0.09853792190551758 0.1728808879852295 -0.060495030134916306 -0.1849319487810135 0.05576852336525917 -0.18089430034160614 -0.2940959632396698 0.3688109815120697 0.1307004690170288 0.22727401554584503 -0.13936077058315277 0.16161154210567474 0.17845672369003296 0.11175835132598877 -0.27788954973220825 -0.026479393243789673 -0.09683237224817276 0.6104357242584229 -0.7451853156089783 -0.22912682592868805 0.3592417538166046 0.023550251498818398 0.1649790108203888 -0.008863341994583607 0.10589013248682022 -0.01646755076944828 0.246676966547966 -0.09112554788589478 -0.09775962680578232 -0.3425004184246063 -0.4106971323490143 -0.03079424612224102 -0.17864994704723358 0.03361423686146736 0.26063254475593567 0.4785099923610687 0.3910472095012665 0.12863890826702118 0.06863883137702942 0.1040615439414978 -0.38136962056159973 0.16369858384132385 -0.026930132880806923 0.19468361139297485 0.12833839654922485 0.0043916902504861355 -0.29320934414863586 -0.33968886733055115 0.09309202432632446 0.17869353294372559 -0.14943785965442657 0.13574163615703583 0.08300181478261948 0.04035911709070206 0.0028539076447486877 -0.22216685116291046 -3.4113667011260986 0.07632201910018921 0.00042519965791143477 0.18859736621379852 -0.03313441202044487 0.05035402253270149 -0.18197669088840485 -0.30481505393981934 0.090143121778965 -0.19522136449813843 -0.08135808259248734 -0.15920740365982056 -0.32322990894317627 0.34214839339256287 0.29955196380615234 -0.3183915317058563 -0.045311231166124344 -0.041995078325271606 -0.08503755182027817 -0.047495126724243164 -0.12596575915813446 -0.22336481511592865 0.006181780714541674 0.42286989092826843 -0.19416429102420807 1.0146311521530151 0.133881613612175 -0.26918742060661316 0.2748458981513977 0.13975916802883148 -0.5622550845146179 0.05066484585404396 0.026386408135294914 -0.22604204714298248 0.10182195156812668 -0.29567232728004456 0.059022773057222366 -0.30446794629096985 -0.2747228443622589 0.03359862044453621 -0.02213895320892334 0.04270688816905022 -0.019681235775351524 0.09686668962240219 -0.07748986035585403 -0.47425785660743713 0.4360138475894928 0.16009007394313812 0.13569016754627228 -0.3497617244720459 0.09225791692733765 -0.292911559343338 0.28023436665534973 0.24588406085968018 -0.19183403253555298 -0.015177530236542225 0.03784437105059624 -0.019800137728452682 -0.07309719175100327 -0.19291287660598755 -0.2593395709991455 0.176682248711586 0.09167194366455078 0.05781925842165947 -0.27778002619743347 -0.049384307116270065 0.1304134726524353 0.10104981809854507 0.16241566836833954 -0.17310334742069244 0.016315439715981483 -0.43777498602867126 0.3015722334384918 -0.34245407581329346 0.11951863765716553 -0.09769663959741592 -0.00369725632481277 0.0029828138649463654 0.42569348216056824 -0.1614842414855957 0.09669242054224014 0.2807718813419342 0.5247857570648193 0.03770337626338005 -0.3489796221256256 0.29326823353767395 0.06918803602457047 0.10431697219610214 0.09855103492736816 -0.049842555075883865 0.13331685960292816 -0.06779638677835464 -0.20415987074375153 -1.2505453824996948 0.1320878565311432 -0.48046085238456726 0.3578677475452423 0.1259068250656128 0.14546795189380646 -0.1449129730463028 -0.23458649218082428 0.24238978326320648 0.037389207631349564 0.3225835859775543 0.273586243391037 -0.3441499173641205 -0.17059022188186646 -0.21031074225902557 0.23672854900360107 -0.419698566198349 -0.30654802918434143 0.17435748875141144 0.052076905965805054 0.03361092507839203 0.3624228239059448 0.13064934313297272 0.3524670898914337 -0.17045432329177856 -0.22687752544879913 -0.16954487562179565 -0.15725788474082947 -0.3016423285007477 0.013480554334819317 -0.10720064491033554 0.03800042346119881 0.2927803695201874 0.06716417521238327 -0.05197283625602722 -2.0015604496002197 -0.2152736634016037 -0.14480598270893097 -0.31152498722076416 0.2803932726383209 -0.055163342505693436 0.2693537175655365 -0.21488051116466522 -0.13915126025676727 0.1829742044210434 0.20168523490428925 -0.16518956422805786 0.30733948945999146 0.20898818969726562 0.1551903933286667 0.30882230401039124 -0.10479346662759781 -0.23781180381774902 -0.28663909435272217 0.07682814449071884 -0.10198142379522324 0.0719645544886589 0.25092005729675293 -0.13819237053394318 0.27841389179229736 0.2162664383649826 -0.4382797181606293 -0.008053579367697239 -0.3225952386856079 -0.07665135711431503 -0.09516313672065735 -0.3855837881565094 -0.20932340621948242 -0.2192574292421341 -0.02644527517259121 -0.2923133075237274 -0.07739605754613876 0.17336033284664154 0.5353368520736694 0.03947530686855316 0.020431945100426674 0.29827940464019775 0.24197031557559967 0.13804461061954498 -0.07870426028966904 0.011082128621637821 -0.2120344191789627 -0.49820199608802795 -0.0707775428891182 0.37428173422813416 0.008863061666488647 0.03311392292380333 0.3738350570201874 -0.18095725774765015 -0.0913182869553566 -0.2626936733722687 0.16761095821857452 0.21442054212093353 -0.16958223283290863 -0.2661006450653076 0.08013992756605148 -0.22954030334949493 -0.006203869823366404 0.17135430872440338 -0.31880632042884827 -0.11697480082511902 -0.12054604291915894 -0.2517181932926178 0.0034217138309031725 0.07229103893041611 -0.03606591746211052 -0.2701570987701416 -0.2581256926059723 -0.9677413105964661 -0.3815983533859253 -0.018366152420639992 -0.3762059509754181 0.02674114517867565 0.28813788294792175 -0.05133548378944397 0.20387238264083862 0.047488123178482056 0.32136401534080505 0.3084718883037567 -0.06664647161960602 0.11515840142965317 -0.00077858567237854 -0.38463127613067627 -0.15542519092559814 0.07368188351392746 0.12080990523099899 0.18740780651569366 0.2684800326824188 -0.007079313043504953 0.13584434986114502 0.18979604542255402 0.2063843458890915 -0.3771373927593231 0.22922849655151367 0.0818713828921318 -0.1979047656059265 -0.04218580946326256 0.19288353621959686 -0.03469474986195564 0.07195869833230972 0.07683954387903214 -0.5547838807106018 0.13317859172821045 -0.20956450700759888 -0.021549826487898827 0.00635123997926712 -0.24504835903644562 0.24524278938770294 -0.07066743820905685 0.0936184823513031 -0.17768853902816772 -0.08687513321638107 0.5101339817047119 0.027706993743777275 0.2253904938697815 0.16868077218532562 0.15987567603588104 -0.019702494144439697 0.11714544147253036 -0.04508033022284508 0.04315008223056793 0.19349278509616852 -0.12267795950174332 -0.159384623169899 -0.08084719628095627 0.011753156781196594 0.06644651293754578 0.04994017258286476 -0.4201575815677643 -0.21313036978244781 -0.0542733259499073 0.045256633311510086 0.1356227993965149 0.11910473555326462 0.2100379467010498 0.20979399979114532 0.1619383543729782 -0.4468015730381012 -0.01681612990796566 0.009141683578491211 0.2716139853000641 -0.17518268525600433 0.41451966762542725 0.19012244045734406 0.21612083911895752 0.07776590436697006 -0.0842757299542427 0.31651076674461365 -0.09377757459878922 -0.07410763204097748 -0.2801639139652252 0.20222719013690948 -0.1523684412240982 -0.41113436222076416 0.28114601969718933 -0.30803704261779785 -0.06502930074930191 -0.3321880102157593 0.015067522414028645 -0.05975311994552612 0.21898235380649567 0.4088851511478424 -0.30738309025764465 -0.21379202604293823 0.2610766887664795 0.46833205223083496 -0.12402394413948059 0.23595629632472992 -0.12690366804599762 -0.16472508013248444 0.22002941370010376 -0.11204472929239273 -0.22949247062206268 0.21253041923046112 0.09804756194353104 0.028270656242966652 -0.32038605213165283 0.1948823481798172 0.152234748005867 0.08986061811447144 0.2573443353176117 -0.19505572319030762 -0.33123326301574707 0.17127065360546112 0.3247200846672058 0.13437925279140472 -0.3407238721847534 -0.24289532005786896 -0.16057871282100677 -0.3902028501033783 0.2937219738960266 0.38672518730163574 0.12811264395713806 0.22748029232025146 0.21213579177856445 0.18581795692443848 -0.031837403774261475 -0.4448103904724121 -0.004176465328782797 0.15830643475055695 0.02419482357800007 0.352041095495224 0.14715085923671722 -0.325933575630188 -0.1544003039598465 -0.018993889912962914 -0.3327920138835907 -0.22530968487262726 -0.161762073636055 0.06884463876485825 0.029421145096421242 0.12513479590415955 0.25365182757377625 0.29708173871040344 -0.21249209344387054 -0.3395901620388031 -0.18710489571094513 0.05748492479324341 0.04734228923916817 0.249284565448761 -0.033729929476976395 -0.4287281036376953 -0.2761033773422241 -0.2980804741382599 0.14195814728736877 -0.03156111016869545 0.24172116816043854 -0.02972954511642456 -0.07462456077337265 0.366445392370224 -0.05289154127240181 -0.07220849394798279 0.12825731933116913 0.08361157774925232 0.1552814096212387 0.047451138496398926 -0.17409376800060272 -0.12589019536972046 -0.09769750386476517 0.20549476146697998 -0.20501405000686646 0.12690353393554688 0.2561424970626831 0.1815708875656128 0.004498680587857962 0.003915215376764536 -0.0740092545747757 0.2375754565000534 -0.4677066504955292 0.04097439721226692 -0.47685539722442627 -0.28110769391059875 0.17377261817455292 0.07034330815076828 -0.021444329991936684 -0.15767988562583923 0.17654098570346832 0.28593575954437256 0.1046619787812233 0.11167800426483154 0.26663610339164734 0.07858587056398392 -0.020256495103240013 -0.060307618230581284 0.26762160658836365 -0.11838055402040482 0.22246237099170685 0.02633686363697052 0.12086737155914307 -0.16156862676143646 0.02439785934984684 0.10088038444519043 -0.1634712666273117 -0.14534899592399597 0.09075506776571274 0.9536563754081726 0.4171452522277832 -0.12281904369592667 -0.12268450111150742 0.2628561556339264 -0.24587036669254303 -0.09887978434562683 0.1528088003396988 -0.05684153735637665 -0.026260698214173317 0.18581779301166534 0.16808052361011505 -0.11767443269491196 0.32385292649269104 0.064056396484375 0.1605648249387741 -0.053701430559158325 0.10483678430318832 -0.37166735529899597 0.0491449348628521 -0.11204441636800766 0.5486278533935547 0.08532077074050903 0.15275169909000397 -0.1825571060180664 0.09986195713281631 0.11577590554952621 -0.016514554619789124 0.0825209990143776 0.18692179024219513 -0.26539066433906555 -0.10332430154085159 0.1830480694770813 0.5813910365104675 -0.577991783618927 0.0009329567546956241 -0.09378745406866074 -0.4810645282268524 0.08342289924621582 0.15306337177753448 0.1210702434182167 -0.2251434326171875 0.13960306346416473 0.07080715894699097 0.16026654839515686 0.20209354162216187 -0.4380665719509125 -0.22175385057926178 -0.1065201535820961 0.13655759394168854 0.16145242750644684 0.2925543189048767 -0.07372447103261948 0.19433367252349854 0.21902067959308624 -0.1451379656791687 0.07907900959253311 0.044673144817352295 -0.12792354822158813 -0.0657607838511467 0.1683615893125534 0.1724378913640976 0.2148166447877884 0.05935901403427124 0.26939356327056885 -0.045475270599126816 -0.009561330080032349 0.01787523366510868 0.13111121952533722 0.01965510845184326 0.09522999078035355 -0.01632801443338394 -0.16326439380645752 0.15278694033622742 -0.377873033285141 0.1572420299053192 0.36391279101371765 0.10761561244726181 -0.16274116933345795 -1.1633179187774658 -0.342719703912735 -0.27197879552841187 -0.19366545975208282 -0.22558921575546265 0.3435499966144562 0.45917344093322754 0.17270995676517487 -0.3345576822757721 -0.2463049441576004 0.08466454595327377 0.23144395649433136 0.13380566239356995 0.031551480293273926 -0.0827401876449585 0.2726496756076813 0.2990914285182953 -0.2905386984348297 0.04175803065299988 -0.385845422744751 -0.19494663178920746 0.20048105716705322 -0.170379176735878 -0.1855199784040451 -0.2560270130634308 0.15700273215770721 -0.26977279782295227 -0.07489802688360214 -0.2199861854314804 0.011981894262135029 -0.05306798219680786 0.24167878925800323 -0.2551698088645935 -0.17067404091358185 -0.15447962284088135 0.11571210622787476 -0.03384116291999817 0.1077897921204567 -0.03791504725813866 0.365138441324234 0.22603972256183624 0.48305702209472656 -0.12982302904129028 -0.3739236295223236 0.2395346313714981 0.13621939718723297 -0.027420803904533386 0.3630765974521637 -0.03429370000958443 -0.14761078357696533 -0.2421027570962906 -0.04678352549672127 0.026802251115441322 -1.2648156881332397 0.3120279312133789 -0.05199803411960602 0.15337234735488892 0.22003473341464996 -0.021190961822867393 -0.1984512209892273 -0.3988853991031647 0.1424126923084259 -0.15391285717487335 0.16472816467285156 0.238602414727211 -0.24429704248905182 -0.23989756405353546 -0.07647771388292313 0.31482866406440735 0.010807119309902191 -0.19496864080429077 -0.021700063720345497 0.07002075761556625 0.29034948348999023 -0.046981777995824814 0.12524273991584778 0.029721111059188843 0.022402817383408546 -0.10245690494775772 0.2235773354768753 -0.41642943024635315 -0.11381548643112183 -0.010491124354302883 0.2351256161928177 0.10660263150930405 -2.8110129833221436 -0.17638498544692993 0.16245035827159882 -0.26884976029396057 0.12878257036209106 -0.19020968675613403 0.21785898506641388 -0.05414794757962227 0.009392340667545795 -0.36240386962890625 0.2449253350496292 -0.5192456245422363 -0.05947316810488701 -0.0019332716474309564 0.09453549236059189 0.0065732249058783054
apple 0.17980684340000153 0.2118811160326004 -0.4309922158718109 0.01525126863270998 0.1817873865365982 -0.031116047874093056 0.1608714908361435 0.22425515949726105 0.048595547676086426 -0.20218999683856964 0.03340902552008629 -0.006930211093276739 -0.05115704610943794 -0.03730195388197899 -0.38527441024780273 -0.16291119158267975 -0.07312919199466705 0.2142002433538437 0.11182092875242233 0.06270139664411545 0.3472154140472412 -0.13044099509716034 0.23159624636173248 -0.09287821501493454 0.016209134832024574 -0.12710723280906677 -0.3047697842121124 -0.03668484464287758 -0.20604892075061798 -0.03763881325721741 -0.14031830430030823 -0.059064507484436035 0.25343605875968933 0.04056112840771675 -0.14818592369556427 -0.20483040809631348 -0.039760541170835495 -0.12762218713760376 -0.356824666261673 -0.08239179104566574 -0.13321523368358612 -0.20807695388793945 0.05562401935458183 0.0033072233200073242 0.21004897356033325 -0.1748301237821579 -0.9518387913703918 0.10097267478704453 -0.06375303119421005 0.22156722843647003 -0.1925768256187439 0.22709740698337555 0.09073257446289062 0.08509523421525955 0.38296687602996826 0.29396000504493713 0.2613174021244049 -0.17260690033435822 0.22449450194835663 -0.10306642204523087 -0.09545712918043137 0.22311602532863617 -0.2465779185295105 -0.1750464290380478 0.10070982575416565 0.00748496875166893 0.24139706790447235 0.2686675786972046 -0.6878330707550049 0.10636893659830093 -0.1024312749505043 -0.6154932975769043 0.10749947279691696 -0.051993969827890396 0.33019253611564636 -0.003060057759284973 -0.20758302509784698 0.4217301905155182 0.17027635872364044 0.056843340396881104 0.12008925527334213 0.24310453236103058 0.27505773305892944 0.41605910658836365 -0.00099032127764076 0.02408665418624878 -0.2927808463573456 -0.05957971140742302 -0.06743427366018295 0.12098825722932816 -0.011789053678512573 -0.07863853126764297 0.16622251272201538 0.12383527308702469 0.12213396281003952 -0.23510372638702393 -0.30350226163864136 -0.09182951599359512 0.06833107024431229 0.17279283702373505 -0.06748814135789871 -0.0621638298034668 0.07687877863645554 0.45120370388031006 -0.1708306074142456 -0.005391875747591257 -0.04892279580235481 0.1620798259973526 -0.17019450664520264 -0.6923597455024719 0.38461852073669434 0.17084626853466034 0.2232639044523239 -0.044720008969306946 -0.3748169243335724 0.18916648626327515 0.3248908519744873 0.03527915105223656 0.09771361947059631 -0.03321739658713341 -0.289844274520874 0.052374422550201416 0.23476946353912354 0.5524603724479675 -0.03168070316314697 -0.0836043581366539 -0.07932911813259125 -0.38740983605384827 0.2537500858306885 -0.2529865801334381 -0.436525821685791 0.45574501156806946 0.08860019594430923 0.2547721862792969 -0.2421044111251831 0.30480965971946716 -0.03699303790926933 0.14450858533382416 -0.22830621898174286 0.022193416953086853 -0.14723224937915802 0.7213308215141296 -0.9018819332122803 -0.20134003460407257 0.3910052478313446 0.2667451798915863 0.22461581230163574 0.05462665483355522 -0.050563156604766846 -0.15186826884746552 0.3019650876522064 0.017613938078284264 -0.38870105147361755 -0.13055160641670227 -0.2523207366466522 0.17556564509868622 -0.018768202513456345 -0.07979489117860794 0.44347214698791504 0.4313013553619385 0.21059803664684296 0.09369871765375137 0.1297917515039444 0.0018153935670852661 -0.27151358127593994 0.2204686403274536 -0.05041861534118652 0.11986606568098068 0.08527307957410812 0.0715513825416565 -0.318758100271225 -0.2164478749036789 0.32629817724227905 0.18474511802196503 -0.1832866668701172 0.29246786236763 0.06534919142723083 0.10388564318418503 -0.10715200752019882 0.05545392632484436 -3.4523417949676514 -0.07735157012939453 0.2425975352525711 0.2186134308576584 -0.11238960176706314 -0.2531977593898773 0.0892731323838234 -0.21711593866348267 0.10602196305990219 -0.18327276408672333 -0.19796764850616455 -0.3541198968887329 -0.28290215134620667 0.3382103443145752 0.27654483914375305 -0.21520666778087616 -0.27636805176734924 -0.38891148567199707 -0.0034358997363597155 0.0514896921813488 -0.052109409123659134 -0.17606735229492188 -0.005910772830247879 0.15710477530956268 -0.46038803458213806 0.7953973412513733 0.1562415212392807 -0.3302099108695984 0.07077877968549728 0.17909185588359833 -0.5460819005966187 0.22978602349758148 0.030858518555760384 -0.28130748867988586 0.3109891414642334 -0.13080091774463654 0.05862550437450409 -0.3114456832408905 -0.4750564992427826 -0.16326384246349335 -0.1600872427225113 -0.0009745458955876529 -0.08123349398374557 0.1575564593076706 -0.028355896472930908 -0.10244008153676987 0.3614300489425659 0.23756349086761475 0.4024770259857178 -0.5255635380744934 0.10487371683120728 -0.10289271920919418 0.23953519761562347 0.061276476830244064 -0.33985599875450134 0.07893113046884537 -0.09659609943628311 -0.15914158523082733 -0.06817377358675003 0.010369221679866314 -0.12832783162593842 0.14580751955509186 0.16156837344169617 0.09833908081054688 -0.23950184881687164 -0.2256450653076172 0.17799143493175507 0.11520222574472427 0.4538646936416626 -0.2525268495082855 0.04393723979592323 -0.2307058423757553 0.19804497063159943 -0.3104703724384308 0.32230931520462036 0.1499529927968979 0.08078531920909882 0.15399785339832306 0.386883407831192 0.061356525868177414 0.083819180727005 0.3150671124458313 0.5340695977210999 0.20343726873397827 -0.382073312997818 0.112124003469944 0.14921952784061432 0.1213100329041481 0.00856831669807434 0.04298212006688118 -0.13596999645233154 -0.10291741043329239 -0.2952590882778168 -1.1704896688461304 -0.2229718714952469 -0.621204674243927 0.3078949451446533 0.0019201189279556274 0.10995539277791977 -0.10913284868001938 -0.16056042909622192 0.4667257070541382 -0.0028133441228419542 0.21642398834228516 0.3378210961818695 -0.28796833753585815 -0.30182477831840515 -0.2829999029636383 0.18660277128219604 -0.14780163764953613 -0.3026404082775116 0.2407219409942627 -0.09347402304410934 0.1603844314813614 0.34686803817749023 -0.01199516374617815 0.4440706968307495 -0.12914083898067474 -0.2944609820842743 -0.291471391916275 -0.06631039828062057 -0.012847145088016987 0.0801127478480339 -0.2229294329881668 -0.21786075830459595 0.4291175305843353 0.1004365086555481 -0.08199293166399002 -1.8788703680038452 -0.2340938001871109 0.05307010933756828 -0.4522683918476105 -0.04994295910000801 -0.3064916729927063 0.014350867830216885 -0.019157741218805313 -0.2113579511642456 -0.07937360554933548 0.1806892603635788 -0.1609133630990982 0.24260801076889038 0.2624516487121582 0.05744021013379097 0.26891300082206726 0.08702047914266586 -0.34587156772613525 -0.33560892939567566 0.05793963000178337 -0.09000348299741745 -0.03761100769042969 0.29395949840545654 -0.30252912640571594 0.2497696429491043 0.06524777412414551 0.04877225682139397 0.04204569384455681 -0.12649847567081451 0.14142420887947083 -0.1852569580078125 -0.2405823916196823 -0.20062315464019775 0.08699891716241837 -0.065057173371315 -0.28430792689323425 0.009708032011985779 0.17673921585083008 0.5666490197181702 0.015676796436309814 0.2232191115617752 0.4406743347644806 0.07909783720970154 0.19701947271823883 -0.06614462286233902 -0.016109535470604897 -0.09892088174819946 -0.235329270362854 -0.14928394556045532 0.23718690872192383 0.36363258957862854 -0.021923406049609184 0.21043969690799713 -0.2222345620393753 0.10515019297599792 -0.3133524954319 0.18735091388225555 0.4065462052822113 -0.03866186738014221 -0.21030540764331818 0.2909288704395294 -0.05795625224709511 0.23680877685546875 0.10953763872385025 -0.10898500680923462 -0.198240265250206 -0.031230339780449867 -0.030380815267562866 0.043111663311719894 0.039606038480997086 -0.21683813631534576 -0.279349684715271 -0.10947952419519424 -1.0294362306594849 -0.55563884973526 0.11900339275598526 -0.36743107438087463 0.06387657672166824 0.025449195876717567 0.06050117686390877 -0.021398702636361122 0.21017664670944214 0.20906536281108856 0.32628729939460754 -0.053213801234960556 -0.09994944930076599 -0.20943240821361542 -0.19047199189662933 -0.010309398174285889 0.1484508067369461 -0.04255761578679085 0.030197033658623695 0.2886102497577667 0.04208061471581459 0.11453402787446976 0.18977271020412445 0.3295571506023407 -0.37634435296058655 0.17632581293582916 0.03054046630859375 -0.42351946234703064 -0.030578717589378357 0.2982375919818878 -0.30786582827568054 -0.15931826829910278 0.2738442122936249 -0.4636944830417633 -0.108828604221344 -0.23398752510547638 0.06477934867143631 0.13753817975521088 -0.2795253396034241 0.3538611829280853 -0.048625994473695755 -0.05056355521082878 -0.15339307487010956 -0.015453127212822437 0.545210063457489 0.0922209843993187 0.11638680845499039 -0.21011900901794434 0.1940089464187622 0.21795141696929932 0.12772755324840546 -0.14963877201080322 -0.020949656143784523 -0.103386789560318 -0.18690961599349976 -0.15090259909629822 -0.14405874907970428 -0.021766334772109985 0.09529117494821548 0.0540221743285656 -0.3436799943447113 -0.021999135613441467 -0.07221431285142899 -0.014418761245906353 0.2566578984260559 0.2756796181201935 0.20755241811275482 0.33089134097099304 0.1437821239233017 -0.22938936948776245 0.1423107236623764 0.27357006072998047 0.3394978940486908 -0.06305649876594543 0.07171648740768433 0.2430342435836792 0.1455901563167572 0.05523616075515747 0.09456326812505722 0.05379532650113106 -0.2612191140651703 0.15363536775112152 -0.3131664991378784 0.07520241290330887 -0.11288370937108994 -0.4497488737106323 0.020052382722496986 -0.01892239786684513 0.22356165945529938 -0.31892308592796326 0.010251020081341267 -0.04083293676376343 -0.08899280428886414 0.4038943350315094 -0.01821335218846798 -0.30596819519996643 0.32150983810424805 0.4143356382846832 -0.16207969188690186 0.06837872415781021 -0.1013396605849266 -0.21046988666057587 0.16732124984264374 0.07852780818939209 -0.49430546164512634 -0.1686633825302124 0.19321544468402863 0.1672358512878418 -0.39993032813072205 0.027457095682621002 0.05245963856577873 0.1843462437391281 -0.18138594925403595 -0.3381923735141754 -0.3649657666683197 0.23900379240512848 0.1073727235198021 0.09478933364152908 -0.23782742023468018 -0.11005187779664993 -0.19217340648174286 -0.49833616614341736 0.16793356835842133 0.3288661539554596 0.1550941914319992 0.36409521102905273 -0.04038003832101822 0.19073569774627686 0.11171974986791611 -0.37519875168800354 0.1763417273759842 0.1315935254096985 0.04086809977889061 0.4533582627773285 0.290950745344162 -0.43147268891334534 -0.006834367755800486 0.07261133193969727 -0.6098787784576416 -0.2210906594991684 -0.29356682300567627 0.21535547077655792 0.3960995674133301 0.032723549753427505 0.2724790871143341 0.18784989416599274 -0.273958683013916 -0.44598591327667236 -0.16824226081371307 0.13877639174461365 -0.006179293151944876 0.05581628158688545 -0.02183487080037594 -0.27533772587776184 -0.12334688752889633 -0.17798002064228058 0.15795770287513733 0.19759684801101685 0.039485055953264236 -0.005875786300748587 0.23865020275115967 0.4484832286834717 0.149213969707489 -0.7255150675773621 0.00028459480381570756 0.09733898192644119 0.16911476850509644 -0.13427449762821198 -0.3488878309726715 -0.39364567399024963 -0.06456700712442398 0.1295451670885086 -0.06598258018493652 -0.041452452540397644 0.5591787695884705 -0.007113506551831961 0.09954947233200073 -0.09535596519708633 0.20657218992710114 0.3083595037460327 -0.3108530342578888 -0.1033676490187645 -0.333743691444397 -0.295541912317276 0.00531628867611289 -0.19987769424915314 -0.2576131820678711 -0.0942390188574791 0.11038043349981308 0.3160160481929779 0.0977981686592102 0.16185414791107178 0.22363896667957306 -0.032985419034957886 -0.18941491842269897 0.15881110727787018 0.23823440074920654 0.07217834144830704 0.1904250979423523 -0.03748457878828049 0.2707696855068207 -0.4520866870880127 0.018981218338012695 0.3625105619430542 -0.29520487785339355 -0.2862287759780884 0.013920307159423828 0.6690573692321777 0.4699811041355133 -0.2806120216846466 -0.1801711767911911 0.2964491546154022 -0.22474132478237152 -0.01718517579138279 0.07717833667993546 -0.07089298218488693 -0.11501296609640121 0.3189469277858734 0.2326907515525818 -0.2931794226169586 0.2780231237411499 -0.1730998009443283 0.15301166474819183 -0.2565232217311859 -0.038367193192243576 -0.419942706823349 0.09460040181875229 -0.2858007550239563 0.560261070728302 0.313180536031723 0.12183443456888199 -0.253360778093338 0.178660586476326 0.06651046127080917 -0.18000830709934235 -0.2773163616657257 -0.10003325343132019 -0.4884055554866791 0.05490245297551155 0.1613091081380844 0.4855881631374359 -0.6328114867210388 0.03205833584070206 0.012632638216018677 -0.49054232239723206 0.03313487768173218 0.2985652983188629 -0.03878061845898628 -0.017959212884306908 0.11126115918159485 -0.11165729910135269 0.3317728340625763 0.4503127634525299 -0.3413277566432953 -0.37169456481933594 -0.14501185715198517 0.28305888175964355 0.24201352894306183 0.2038680464029312 0.024645306169986725 0.30200356245040894 0.18330569565296173 -0.18548841774463654 -0.04236367344856262 -0.08671721816062927 -0.26851892471313477 -0.20277619361877441 0.4297207295894623 0.053400229662656784 -0.002132986905053258 0.17267702519893646 0.08087928593158722 -0.14468170702457428 -0.03840223327279091 0.15474435687065125 0.055019330233335495 0.10350382328033447 0.3699542284011841 0.12524883449077606 -0.1760001927614212 0.18000441789627075 -0.19111156463623047 -0.1345568299293518 0.30309054255485535 0.250437468290329 0.1112184002995491 -1.023881435394287 -0.06488651037216187 -0.08598462492227554 -0.11771896481513977 -0.37852248549461365 0.219466432929039 0.4578459560871124 -0.01652643084526062 -0.1656031757593155 -0.43636035919189453 0.07859773188829422 0.34747156500816345 0.2685254216194153 0.04423043131828308 -0.15749166905879974 0.18993782997131348 0.16129066050052643 0.01083362102508545 -0.032412391155958176 -0.10097217559814453 0.09537709504365921 0.09015869349241257 -0.18900953233242035 -0.246906116604805 -0.17316871881484985 -0.010844872333109379 -0.24574406445026398 -0.41202011704444885 -0.29038843512535095 0.16884422302246094 -0.19007982313632965 0.18232591450214386 -0.3355872631072998 0.1525186151266098 -0.15494757890701294 0.1730358749628067 -0.19297082722187042 0.08124751597642899 0.07798583805561066 0.13630129396915436 0.17639057338237762 0.7015036940574646 -0.31383028626441956 -0.3665577173233032 0.1301044076681137 0.03248797357082367 0.17135553061962128 0.4061416685581207 -0.2858646512031555 0.015198399312794209 -0.12141242623329163 -0.04952375218272209 0.002685561776161194 -1.317722201347351 0.042075324803590775 -0.08056417852640152 0.13397978246212006 0.232302725315094 0.16447389125823975 -0.07927867025136948 -0.32981786131858826 -0.01996350847184658 -0.11688882857561111 0.2801995277404785 0.3236728310585022 -0.013183136470615864 -0.15865547955036163 -0.060826629400253296 0.19623732566833496 0.0548146516084671 -0.060308534651994705 0.03136657550930977 0.27264857292175293 0.2581374943256378 -0.11631542444229126 -0.03355007246136665 0.0065337917767465115 0.0018234302988275886 0.1685897260904312 -0.15150795876979828 -0.3790825605392456 -0.25178593397140503 0.25520655512809753 0.29475000500679016 -0.06586303561925888 -2.8145086765289307 -0.5115864276885986 0.33086341619491577 -0.011467061936855316 0.12342911958694458 -0.23877942562103271 0.104779452085495 -0.12709364295005798 -0.10842806100845337 -0.26699936389923096 0.39313340187072754 -0.2828131914138794 0.04960710182785988 0.11965131759643555 -0.011186420917510986 -0.27048036456108093
monkey 0.3474150002002716 0.14311282336711884 -0.3840853273868561 0.04125572368502617 -0.17429547011852264 -0.07518144696950912 0.28328633308410645 0.007853646762669086 -0.1637931913137436 -0.12924882769584656 0.06418287009000778 -0.09810759872198105 -0.12208729982376099 -0.08303284645080566 -0.46440327167510986 -0.20160484313964844 0.019533222541213036 0.09513714164495468 0.18128852546215057 -0.08288463950157166 0.31471240520477295 -0.19872505962848663 -0.01180267333984375 -0.0178676750510931 0.07650356739759445 0.06204609572887421 -0.20255327224731445 0.3059118092060089 -0.05411912128329277 -0.22047674655914307 -0.0870804488658905 -0.1808515340089798 0.025102853775024414 0.32969582080841064 -0.07561640441417694 -0.10107658058404922 0.15124058723449707 -0.1524830162525177 -0.07776878029108047 -0.26362690329551697 0.21907591819763184 -0.12944121658802032 -0.004743685480207205 0.17553174495697021 0.19633233547210693 -0.19652260839939117 -0.4194335639476776 0.028237393125891685 0.04122543707489967 0.06601104885339737 -0.11698085069656372 0.3441292941570282 0.03656943514943123 0.12398790568113327 0.22634319961071014 0.18606948852539062 0.2703059911727905 -0.0022370219230651855 0.135587677359581 -0.1938484162092209 -0.17179317772388458 0.21937493979930878 -0.06486903876066208 -0.11327012628316879 -0.21106863021850586 0.14043694734573364 0.15507599711418152 0.12483116239309311 -0.3821595013141632 0.000332971423631534 0.017415666952729225 -0.3197389543056488 0.19009102880954742 0.03802205249667168 0.17269742488861084 0.02608230710029602 -0.08298052102327347 0.24683202803134918 0.09657588601112366 0.14896924793720245 0.27846917510032654 0.18185152113437653 0.0914945900440216 0.09154084324836731 -0.009220500476658344 0.04162139818072319 -0.1341962218284607 -0.04816470667719841 -0.19275927543640137 0.12228713184595108 -0.0904044434428215 0.0011782149085775018 -0.05862459912896156 0.06333918124437332 0.004415384028106928 -0.032119084149599075 -0.27655285596847534 -0.12041616439819336 0.3070899546146393 -0.16715992987155914 -0.015151242725551128 -0.26991215348243713 0.13891436159610748 0.40223217010498047 -0.16612394154071808 -0.17760638892650604 -0.030622312799096107 -0.03654690459370613 -0.15351325273513794 -0.6091849207878113 0.23609639704227448 0.07218629121780396 0.1914423555135727 -0.2038249969482422 -0.10928987711668015 0.05389970541000366 0.10094156116247177 0.019891411066055298 0.09734634310007095 0.04242207109928131 -0.3558572828769684 0.06443307548761368 0.1839662790298462 0.5724684596061707 -0.016054293140769005 0.037631887942552567 -0.14584676921367645 -0.39865243434906006 0.17990408837795258 -0.18990091979503632 -0.24709230661392212 0.5184450745582581 0.10660382360219955 0.18766449391841888 -0.08395367115736008 0.31674841046333313 0.0460866279900074 0.10972683876752853 -0.2596748471260071 -0.10813865065574646 -0.04411545768380165 0.5700443387031555 -0.9052628874778748 -0.07577695697546005 0.19168764352798462 0.1923374980688095 0.2903028130531311 0.048614952713251114 0.048060059547424316 -0.11754772067070007 0.2064651995897293 -0.04139533266425133 -0.25288304686546326 -0.06415721774101257 -0.20597775280475616 -0.031195051968097687 0.047296252101659775 -0.1144677996635437 0.24452388286590576 0.3403785228729248 0.23362575471401215 -0.043375346809625626 0.010954047553241253 0.07406969368457794 -0.3765725791454315 0.0881028100848198 -0.1800452619791031 0.17121917009353638 -0.01632569171488285 0.07849512249231339 -0.4687376022338867 -0.29178881645202637 0.1963312178850174 0.18443147838115692 -0.23225967586040497 0.16018643975257874 0.10116270184516907 0.010048623196780682 -0.06566114723682404 0.08145085722208023 -3.4972050189971924 -0.026062965393066406 0.03749961033463478 0.06900147348642349 0.021579863503575325 -0.060657892376184464 0.07595082372426987 -0.22177962958812714 0.16733194887638092 -0.28371462225914 0.1416226625442505 -0.009157978929579258 -0.30676981806755066 0.20236414670944214 0.41787099838256836 -0.22062258422374725 -0.3084815442562103 -0.2629247009754181 0.2636389434337616 -0.04609380289912224 -0.1329924762248993 -0.04659222066402435 0.14359600841999054 0.2316524237394333 -0.34571167826652527 0.847048282623291 0.03817412629723549 -0.17567570507526398 0.0673157274723053 0.06876549124717712 -0.5244791507720947 0.1659754514694214 -0.04801085591316223 -0.3789083957672119 0.2916243374347687 -0.08567863702774048 0.15257607400417328 -0.29711952805519104 -0.4421236515045166 -0.12692013382911682 -0.08620638400316238 -0.09903114289045334 -0.037878040224313736 0.23641888797283173 -0.04327156022191048 -0.30746373534202576 0.38783958554267883 0.4559377133846283 0.4717997610569 -0.3724999725818634 0.04186004400253296 -0.16712802648544312 0.37102070450782776 0.16513215005397797 -0.20289765298366547 0.027099696919322014 -0.01624390482902527 -0.06836913526058197 -0.009093324653804302 -0.20343784987926483 -0.2261553853750229 0.15150035917758942 0.1156558021903038 0.12379167228937149 -0.22919006645679474 -0.23930704593658447 0.1489822119474411 0.26565268635749817 0.09982160478830338 -0.062387142330408096 0.06213850900530815 -0.2391197830438614 0.26603052020072937 -0.17137159407138824 0.20898549258708954 0.24074214696884155 -0.07082927227020264 -0.1153050884604454 0.32427024841308594 -0.10275217145681381 0.27992677688598633 0.19256986677646637 0.3674033582210541 -0.003676215885207057 -0.36684224009513855 0.3227601945400238 0.029505467042326927 0.13334240019321442 0.03078378178179264 0.038914766162633896 0.002620567800477147 -0.11993835121393204 -0.14948274195194244 -1.222216010093689 -0.008904566057026386 -0.42525115609169006 0.4081094264984131 0.04314501956105232 0.08612364530563354 -0.31177663803100586 -0.4093658924102783 0.16272331774234772 -0.006760095711797476 0.32717499136924744 0.45295074582099915 -0.4418245553970337 -0.22916972637176514 -0.1634259968996048 0.14160658419132233 -0.3036194145679474 -0.19923417270183563 -0.0018974641570821404 0.018983324989676476 0.0963231697678566 0.055714238435029984 0.013088432140648365 0.291891485452652 0.20148484408855438 -0.1657394915819168 -0.12998759746551514 0.05821142718195915 -0.11351072043180466 -0.007164184004068375 -0.17798273265361786 -0.08163513988256454 0.2646421492099762 0.11141633242368698 -0.04588713124394417 -2.206517457962036 -0.13903261721134186 0.06793514639139175 -0.40558257699012756 0.12257290631532669 -0.1168236956000328 0.1710260510444641 -0.18007798492908478 -0.20920181274414062 -0.07396705448627472 0.09480864554643631 -0.22962135076522827 0.2566728889942169 0.10443330556154251 0.04960421845316887 0.11293694376945496 0.10624581575393677 -0.27622270584106445 -0.340710312128067 0.16843803226947784 -0.12838266789913177 0.14643581211566925 0.17657087743282318 -0.28496065735816956 0.20362448692321777 -0.27453339099884033 -0.457963228225708 -0.05044225975871086 -0.11597739905118942 0.04180433228611946 -0.28557685017585754 -0.20121508836746216 -0.23365925252437592 -0.06374867260456085 0.027382075786590576 0.027452779933810234 -0.10500770062208176 0.052904561161994934 0.5100333094596863 -0.012090685777366161 -0.0335569866001606 0.20312021672725677 0.15277667343616486 -0.06981905549764633 -0.08402010798454285 0.020537978038191795 -0.08388757705688477 -0.4485286772251129 -0.06442559510469437 0.30431172251701355 0.11930447816848755 0.027350911870598793 0.24013443291187286 -0.09153580665588379 0.05176512524485588 -0.2865453064441681 0.23685602843761444 0.2827927768230438 -0.070991151034832 -0.13494972884655 0.24019725620746613 -0.20492200553417206 0.25110843777656555 0.1464320570230484 -0.1275017410516739 -0.07527695596218109 0.03137862682342529 -0.09579181671142578 0.09670434147119522 0.04364882782101631 -0.1419382095336914 -0.030465498566627502 -0.07771240919828415 -0.9913455843925476 -0.308040052652359 0.058502618223428726 -0.362758070230484 -0.03717469796538353 0.26728928089141846 -0.06439205259084702 0.11800947040319443 0.042075932025909424 0.1080235168337822 0.21307693421840668 -0.08773013949394226 -0.0762149915099144 -0.20312142372131348 -0.14476899802684784 -0.1548081785440445 0.11909250169992447 0.11787255853414536 0.11580149084329605 0.09127572178840637 0.07522215694189072 0.06114421412348747 0.21466296911239624 0.24158640205860138 -0.2778254449367523 0.09389378875494003 -0.01308936346322298 -0.1225675418972969 -0.27121594548225403 0.37841296195983887 -0.2596423923969269 -0.010173548944294453 0.09738948941230774 -0.39600834250450134 -0.011452238075435162 -0.13399948179721832 0.16987182199954987 0.05364755913615227 -0.31755223870277405 0.32431015372276306 0.10475233942270279 0.3468628227710724 -0.052186667919158936 0.014268527738749981 0.5212686657905579 -0.07271803170442581 0.16757385432720184 0.12083569169044495 0.11600571870803833 0.15055625140666962 0.09052709490060806 -0.1864522099494934 0.10245806723833084 -0.035531770437955856 -0.49839508533477783 -0.02520371414721012 -0.17232637107372284 -0.09043005108833313 0.016944244503974915 -0.008017980493605137 -0.46902522444725037 -0.12237999588251114 0.0700337290763855 0.035927433520555496 0.20540636777877808 0.3562321960926056 0.18521714210510254 0.17828667163848877 0.2375585287809372 -0.3758965730667114 0.09172680228948593 -0.11174827069044113 0.16232983767986298 -0.027071377262473106 0.070106141269207 0.2797984182834625 0.28687721490859985 0.19887785613536835 -0.07956387847661972 0.20318233966827393 -0.33964797854423523 -0.005632953252643347 -0.28002873063087463 0.2087419629096985 -0.13661734759807587 -0.17596399784088135 0.23497259616851807 -0.19110339879989624 -0.02913603000342846 -0.20262569189071655 -0.022511690855026245 -0.09489649534225464 -0.037613630294799805 0.477368026971817 -0.21255190670490265 -0.26417914032936096 0.15193964540958405 0.36490634083747864 -0.046459972858428955 0.12054667621850967 -0.1005907878279686 -0.2582526206970215 0.07479733228683472 -0.06713036447763443 -0.25010111927986145 0.02082718163728714 0.35958078503608704 0.07434076815843582 -0.32942143082618713 0.2142787128686905 0.08010034263134003 0.03649958595633507 0.1426243633031845 -0.12797728180885315 -0.32982906699180603 0.3366234600543976 0.28278225660324097 0.2017848938703537 -0.04260072112083435 -0.04639005661010742 -0.10205947607755661 -0.32914847135543823 0.26141121983528137 0.1780303716659546 0.2638910412788391 0.3337010443210602 0.01837971806526184 0.058776307851076126 0.10464626550674438 -0.19912229478359222 0.11412528157234192 0.1615976244211197 0.00338445114903152 0.4751042127609253 0.08351463079452515 -0.27328965067863464 -0.20294435322284698 0.06705384701490402 -0.2692190706729889 -0.3833472728729248 -0.19656606018543243 0.14084817469120026 0.13091930747032166 0.045267101377248764 0.1450570970773697 0.21961666643619537 -0.010186910629272461 -0.3822973668575287 -0.20745320618152618 0.07793261855840683 0.02558129094541073 0.1099708303809166 -0.12720651924610138 -0.48530638217926025 -0.19652104377746582 -0.19836509227752686 0.18982090055942535 0.1606438308954239 0.2028798609972 -0.09106632322072983 0.11131200194358826 0.2658786475658417 0.016873739659786224 -0.21733564138412476 0.04331597313284874 0.07973524183034897 0.036576900631189346 0.035139989107847214 -0.03522849455475807 -0.23955315351486206 -0.07434374839067459 0.1392785906791687 0.010600398294627666 -0.014131744392216206 0.5315772891044617 0.09476690739393234 -0.206734299659729 0.12215276807546616 0.24906010925769806 0.2799437344074249 -0.17371656000614166 -0.08037471026182175 -0.22986412048339844 -0.1506514996290207 0.14951156079769135 0.09536603093147278 -0.05668266490101814 0.006240447983145714 0.20987600088119507 0.14426188170909882 -0.21570269763469696 -0.12471076101064682 0.23469747602939606 -0.0794420838356018 0.023865871131420135 -0.03512350842356682 0.28648582100868225 0.13433188199996948 0.2155955284833908 0.049196455627679825 0.21365205943584442 -0.2993524372577667 0.08126669377088547 0.17630328238010406 -0.26780927181243896 -0.31862977147102356 -0.013244438916444778 0.889915943145752 0.4706810414791107 0.005459954496473074 -0.16256076097488403 -0.04878922924399376 -0.07848707586526871 -0.06332828104496002 0.1712249517440796 0.0327301062643528 -0.23614279925823212 0.3296690285205841 0.13398082554340363 -0.2647301256656647 0.13382881879806519 0.06991728395223618 0.1837097853422165 -0.04118720814585686 0.10207980126142502 -0.42968448996543884 0.05427209660410881 -0.3397618234157562 0.44908663630485535 0.16102442145347595 0.0026922915130853653 -0.21112269163131714 -0.062154147773981094 -0.004158566240221262 -0.04778977110981941 -0.08721698075532913 0.11861901730298996 -0.26241037249565125 0.00655984366312623 0.161997988820076 0.36291536688804626 -0.5624480247497559 0.19735276699066162 0.07362354546785355 -0.3803701400756836 0.013387898914515972 0.3673316538333893 0.03566640242934227 -0.19310440123081207 0.20183758437633514 -0.027246421203017235 0.28299281001091003 0.11386773735284805 -0.40454816818237305 -0.2220788449048996 -0.07139322906732559 0.16374337673187256 0.24006770551204681 0.185931995511055 -0.0460209846496582 0.029089374467730522 0.17299847304821014 -0.08994560688734055 0.3543500006198883 0.06896138191223145 -0.03775360435247421 -0.25452467799186707 0.10984951257705688 -0.03877626731991768 -0.32849180698394775 0.06492389738559723 0.24592310190200806 -0.08868224173784256 0.03491749241948128 -0.07057131081819534 -0.06723768264055252 0.14364749193191528 0.19859397411346436 0.25608521699905396 0.012536863796412945 0.17849700152873993 -0.20570464432239532 -0.12304750829935074 0.29656484723091125 0.13513566553592682 -0.1714566946029663 -1.1680991649627686 -0.011134698987007141 -0.14904654026031494 -0.25827229022979736 -0.18719233572483063 0.20006465911865234 0.4223170578479767 -0.09769592434167862 0.0665464773774147 -0.40088972449302673 0.10971289873123169 0.3703368902206421 0.1739533692598343 -0.11985933780670166 0.11213425546884537 0.14849026501178741 0.2083217054605484 -0.07228874415159225 0.12882360816001892 -0.1374359130859375 -0.1085861325263977 0.13091221451759338 -0.034074198454618454 -0.250616192817688 -0.10206105560064316 0.2316448837518692 -0.2358221560716629 -0.2673686742782593 -0.17602165043354034 0.01958591304719448 -0.09704335778951645 0.2597592771053314 -0.2879880368709564 -0.09112968295812607 -0.11184560507535934 0.1981658935546875 -0.11760532855987549 0.10087057948112488 0.19884252548217773 0.07738614827394485 0.22422276437282562 0.5435327291488647 -0.35247424244880676 -0.3279185891151428 -0.04087032005190849 0.21900635957717896 0.006460607051849365 0.14747421443462372 -0.15991632640361786 0.04548643156886101 -0.20379579067230225 -0.2506941556930542 0.06378307193517685 -1.3075865507125854 0.19217832386493683 -0.018353095278143883 0.038170091807842255 0.07710938900709152 0.0912802442908287 -0.09718040376901627 -0.22156298160552979 -0.026361564174294472 -0.1926199346780777 0.2753828465938568 0.2725139558315277 -0.2903817594051361 -0.08694101125001907 -0.0975290834903717 0.2615348696708679 -0.15894490480422974 -0.17713813483715057 0.26736196875572205 0.07564420253038406 0.11450447887182236 -0.1270933896303177 -0.37386059761047363 -0.1785823106765747 0.15679742395877838 0.17993508279323578 -0.08201920986175537 -0.3128342926502228 -0.11989609152078629 0.11214999109506607 0.5924971699714661 0.006768271327018738 -2.8556864261627197 -0.3394520580768585 0.388431191444397 0.12990275025367737 0.11050628870725632 -0.20371125638484955 0.025998855009675026 -0.05340507626533508 -0.17261220514774323 -0.39382949471473694 0.21556127071380615 -0.1766229271888733 0.11094517260789871 0.09465893357992172 -0.030399441719055176 0.029653316363692284
banana 0.3394573926925659 0.07762739807367325 -0.3187742531299591 0.1410907357931137 -0.3038039207458496 -0.013128519058227539 0.36137381196022034 0.19138996303081512 -0.16430822014808655 -0.048155054450035095 0.0734812468290329 0.06088414788246155 0.05969640612602234 0.07168511301279068 -0.2824970781803131 -0.0720326378941536 -0.08833944797515869 0.18209998309612274 0.2202855497598648 0.04011772945523262 0.3361170291900635 -0.2053668051958084 0.07927659898996353 0.02551472745835781 0.025571614503860474 -0.07385388016700745 -0.12069850414991379 0.1368352174758911 -0.12687502801418304 -0.20020794868469238 -0.11267932504415512 -0.13052377104759216 0.1454106718301773 0.21904797852039337 0.04052247479557991 -0.19650603830814362 -0.025240818038582802 -0.3013134002685547 -0.2920357882976532 -0.2006896287202835 -0.012132525444030762 -0.14702899754047394 0.1055259108543396 0.049083974212408066 0.08597701787948608 -0.2312721610069275 -0.5861527919769287 0.15405280888080597 0.023992126807570457 0.10951647907495499 -0.05568647384643555 0.3609640300273895 0.056094586849212646 -0.052216220647096634 0.17480750381946564 0.2517814040184021 0.3371521532535553 -0.08254506438970566 0.22858761250972748 -0.2954843044281006 -0.20087653398513794 0.16619354486465454 -0.08121607452630997 -0.0179948378354311 -0.010838925838470459 0.013751011341810226 0.14908982813358307 0.2034454196691513 -0.6641730666160583 -0.11249863356351852 -0.16966946423053741 -0.257294237613678 0.31417983770370483 0.011471514590084553 0.2080717831850052 -0.04186611995100975 -0.006186137441545725 0.23039011657238007 0.07418587803840637 0.15252447128295898 -0.09199380874633789 0.07149337977170944 0.19373025000095367 0.16145233809947968 0.050744518637657166 -0.10835400223731995 -0.09943008422851562 -0.06280162930488586 0.00018708656716626137 0.2895806133747101 -0.17143148183822632 0.12722456455230713 0.059225428849458694 -0.0005380163784138858 0.026764480397105217 0.038017768412828445 -0.33848699927330017 -0.011329052038490772 0.2982043921947479 0.04945675656199455 -0.06715185940265656 -0.16413642466068268 0.09885328263044357 0.543820321559906 -0.3498845100402832 -0.07781613618135452 -0.020761236548423767 -0.01199863851070404 0.10705570131540298 -0.5002455115318298 0.3419508934020996 0.16200681030750275 0.1718587428331375 -0.23160727322101593 -0.2914583384990692 0.026596814393997192 0.2052093744277954 0.08175840228796005 -0.14204102754592896 0.09746425598859787 -0.47042885422706604 -0.09033194929361343 0.23956286907196045 0.47392210364341736 -0.03165875002741814 0.03127828240394592 -0.20328296720981598 -0.43302562832832336 -0.06770249456167221 -0.2224249243736267 -0.15694788098335266 0.2986840307712555 -0.026830464601516724 0.21855926513671875 -0.09782269597053528 0.06094937399029732 0.14927180111408234 0.13190080225467682 -0.05999721959233284 -0.23641256988048553 -0.28056415915489197 0.8004035949707031 -0.949042022228241 -0.06522921472787857 0.18182788789272308 0.20080213248729706 0.2389248162508011 0.19269879162311554 -0.026698926463723183 -0.23259581625461578 0.29406145215034485 0.005044907331466675 -0.2630094587802887 -0.21223191916942596 -0.23189938068389893 0.09013450890779495 -0.10873372107744217 0.015464921481907368 0.2323150485754013 0.3985963761806488 0.1014508381485939 0.05251071974635124 0.03889796510338783 0.045106884092092514 -0.3866708278656006 0.058457691222429276 -0.09715002775192261 0.15516088902950287 0.13931961357593536 0.09540272504091263 -0.2524873912334442 -0.23394465446472168 0.31865939497947693 0.12028071284294128 -0.14894269406795502 0.09309125691652298 0.10136580467224121 0.12614913284778595 -0.09605288505554199 0.047276902943849564 -3.441375732421875 0.1391410231590271 0.09881508350372314 0.2781480550765991 -0.1393001675605774 -0.010003355331718922 -0.0489092580974102 -0.03277076408267021 0.2065345197916031 -0.01613152027130127 0.01898912526667118 0.0034168597776442766 -0.3153381645679474 0.27565133571624756 0.150213822722435 -0.010845075361430645 -0.18140697479248047 -0.24560411274433136 0.05030689761042595 -0.049006227403879166 -0.14107757806777954 0.0136212557554245 0.17778027057647705 0.1756507158279419 -0.3885977566242218 0.7779397368431091 0.17311598360538483 -0.16860316693782806 0.1629609316587448 0.16185809671878815 -0.5279332995414734 0.22935593128204346 0.042803406715393066 -0.5286719799041748 0.1783517748117447 -0.09138985723257065 0.11892203241586685 -0.20935124158859253 -0.3659708499908447 -0.1883600950241089 -0.1061258539557457 0.05620102211833 -0.037219323217868805 0.15608160197734833 0.11144760251045227 -0.2594270408153534 0.40883001685142517 0.3215899169445038 0.32237184047698975 -0.11537647247314453 0.0009219895000569522 -0.18115955591201782 0.27479907870292664 0.13696271181106567 -0.2093908190727234 0.14178304374217987 0.0068647912703454494 -0.014953885227441788 -0.06375311315059662 -0.16076089441776276 -0.20757675170898438 0.065892793238163 0.13955157995224 0.05322323739528656 -0.24419955909252167 -0.1806434839963913 0.09845898300409317 0.1426481157541275 0.3099372684955597 -0.0695146843791008 0.020540470257401466 -0.10175064951181412 0.20318503677845 -0.2118721753358841 0.125613734126091 0.27815505862236023 -0.029225600883364677 -0.01843075454235077 0.5203056335449219 -0.09579223394393921 0.18913690745830536 0.19994193315505981 0.3918544352054596 0.08020546287298203 -0.3138850927352905 0.3153786361217499 -0.05489250645041466 0.0992385745048523 -0.03954482451081276 -0.08473730087280273 -0.12221451848745346 -0.025055015459656715 -0.07245329767465591 -1.197696566581726 -0.16970336437225342 -0.48456475138664246 0.3034672141075134 0.07826874405145645 0.06894955039024353 -0.12394130229949951 -0.3436472415924072 0.17717747390270233 -0.20563499629497528 0.1821569800376892 0.33338281512260437 -0.32236289978027344 -0.37511372566223145 -0.06320563703775406 0.12343421578407288 -0.4335782527923584 -0.1867440938949585 0.01756240427494049 -0.04645180329680443 0.25824710726737976 0.22223412990570068 -0.11987481266260147 0.32800012826919556 0.12575139105319977 -0.12273281812667847 -0.19412188231945038 0.16021014750003815 -0.03354503586888313 -0.1256881207227707 -0.29436156153678894 -0.12946724891662598 0.42549121379852295 0.1578710675239563 0.022829584777355194 -2.2872774600982666 -0.11653990298509598 -0.03054141066968441 -0.270497590303421 0.20277978479862213 -0.24597682058811188 0.24473822116851807 -0.19465656578540802 -0.22358624637126923 -0.21080505847930908 -0.0007603727281093597 -0.25466856360435486 0.10604175925254822 0.2496827393770218 0.07761698961257935 0.15908899903297424 0.15275923907756805 -0.3201839029788971 -0.26544031500816345 0.07117680460214615 -0.07421653717756271 0.1152724102139473 0.10667351633310318 -0.13402141630649567 0.11086683720350266 -0.06615252047777176 -0.12707357108592987 -0.024888353422284126 -0.13860292732715607 0.10822400450706482 -0.24745087325572968 -0.3426459729671478 -0.13225339353084564 0.0045826733112335205 -0.030078178271651268 -0.11318247765302658 -0.1085207462310791 -0.09177464991807938 0.39487361907958984 0.11822658032178879 -0.06777951866388321 0.23162895441055298 0.18228310346603394 -0.009698470123112202 -0.16781039535999298 0.055504340678453445 -0.12409117817878723 -0.45992526412010193 -0.0760042741894722 0.3885641098022461 0.21971185505390167 0.056641027331352234 0.25622162222862244 -0.2725101709365845 -0.03630053997039795 -0.2449973225593567 0.24838073551654816 0.15140147507190704 -0.16363655030727386 -0.4005115330219269 0.19986599683761597 -0.09547696262598038 0.1693819761276245 0.16595615446567535 -0.14659929275512695 -0.051533833146095276 -0.013721677474677563 -0.10256078839302063 0.03989800810813904 0.021214107051491737 -0.1233135238289833 -0.17913435399532318 -0.1772223711013794 -0.9590508341789246 -0.3491285741329193 0.0973707064986229 -0.4809321463108063 -0.002923493506386876 0.16536100208759308 0.2460019588470459 0.13742460310459137 0.09944918751716614 0.12341326475143433 0.33223024010658264 -0.17811310291290283 -0.21034710109233856 -0.018915994092822075 -0.14831165969371796 -0.19780515134334564 0.10149014741182327 0.0750727429986 0.14640362560749054 0.21176882088184357 -0.13972459733486176 0.13582400977611542 0.19776253402233124 0.1768663078546524 -0.15849317610263824 -0.08937680721282959 -0.021464312449097633 -0.29462930560112 -0.157009556889534 0.20981742441654205 -0.304531455039978 0.0960690975189209 0.26122239232063293 -0.4643438756465912 -0.07883276790380478 -0.2198607176542282 0.1500043272972107 0.2040223479270935 -0.23966090381145477 0.2569901645183563 0.19335679709911346 0.3027367889881134 -0.060992371290922165 -0.08048859983682632 0.48045778274536133 0.1294264793395996 0.09318417310714722 0.22528867423534393 0.24049681425094604 0.13857221603393555 0.14098016917705536 -0.0877826139330864 0.07869210094213486 -0.10173425078392029 -0.4715566337108612 -0.04233194515109062 -0.045818280428647995 -0.03216928988695145 0.07525663822889328 -0.08252190798521042 -0.41131290793418884 -0.11244378238916397 0.11312320828437805 0.04300900176167488 0.16027860343456268 0.08432475477457047 0.10605447739362717 0.17412029206752777 0.09448791295289993 -0.19632379710674286 0.17337198555469513 0.08589637279510498 0.29254963994026184 -0.1277499496936798 0.02408226765692234 0.23529797792434692 0.08657550811767578 0.12773656845092773 -0.07019621878862381 0.06931737810373306 -0.45859530568122864 -0.05324361100792885 -0.376755028963089 0.11853449791669846 -0.14018000662326813 -0.27226218581199646 0.1805654615163803 0.0006624261732213199 -0.1676301509141922 -0.16403155028820038 0.02872435748577118 -0.0767054557800293 0.05247453972697258 0.3230160176753998 -0.27353236079216003 -0.3205248713493347 0.43528273701667786 0.18196730315685272 -0.07471887022256851 0.15308476984500885 -0.04705885425209999 -0.14242525398731232 0.24241088330745697 0.13001663982868195 -0.3385653495788574 0.04450254142284393 0.15234674513339996 0.004688797052949667 -0.31232941150665283 0.23803120851516724 0.2031230926513672 0.14548349380493164 -0.07463337481021881 -0.34584417939186096 -0.12881608307361603 0.2627815902233124 0.2625329792499542 0.13864344358444214 -0.13044798374176025 -0.03728498890995979 -0.14501547813415527 -0.4279416501522064 0.11460534483194351 0.23436744511127472 0.2710837423801422 0.29841434955596924 0.11633708328008652 0.12919367849826813 -0.00018527109932620078 -0.22064469754695892 0.18813300132751465 0.06163253262639046 0.138046532869339 0.422705739736557 0.04529484733939171 -0.3616516590118408 -0.22994732856750488 -0.07038170844316483 -0.3984203338623047 -0.2246047705411911 -0.16271813213825226 0.19718922674655914 0.1083734929561615 -0.00864929985255003 0.21365536749362946 0.3007434010505676 -0.19906382262706757 -0.38141965866088867 -0.18544261157512665 0.2115345448255539 0.07226013392210007 0.09594816714525223 0.054193537682294846 -0.44485723972320557 -0.13147202134132385 -0.2239576131105423 0.3362342417240143 0.1961546689271927 0.04562819004058838 -0.15548790991306305 0.07505648583173752 0.424631267786026 0.10521038621664047 -0.29529404640197754 0.051500070840120316 0.18113510310649872 0.12259548157453537 -0.13023923337459564 -0.2791317403316498 -0.34205010533332825 0.024866042658686638 0.012807384133338928 0.07273268699645996 0.18232615292072296 0.5504747033119202 0.01577792875468731 -0.07496192306280136 -0.12176050990819931 0.24430543184280396 0.04536604881286621 -0.2616422474384308 -0.057996850460767746 -0.1767764538526535 -0.2614169418811798 0.18507035076618195 0.01720442622900009 -0.1574564278125763 0.002775270491838455 0.2570015788078308 0.32710301876068115 -0.014147360809147358 0.030219614505767822 0.04622479900717735 0.06481686979532242 0.1705024242401123 0.18947778642177582 0.27119770646095276 0.15815697610378265 0.2795372009277344 0.06359188258647919 0.25991949439048767 -0.24388742446899414 0.21629858016967773 -0.08005843311548233 -0.3486056327819824 -0.21546287834644318 -0.1606251746416092 0.6636021733283997 0.5036720633506775 -0.058453258126974106 -0.09806626290082932 0.17576706409454346 -0.06693714112043381 -0.12868817150592804 0.13767248392105103 -0.04320325329899788 -0.019970616325736046 0.4142579138278961 0.18708766996860504 -0.14979888498783112 0.15228097140789032 -0.20549650490283966 0.08442243933677673 -0.04961143806576729 0.11264663934707642 -0.45656704902648926 -0.013852880336344242 -0.2329164743423462 0.4138791263103485 0.27256783843040466 0.07826375216245651 -0.2091185599565506 -0.04509851336479187 0.10054215043783188 -0.05100206658244133 0.016436919569969177 0.19708925485610962 -0.3530440628528595 0.16908828914165497 0.14128227531909943 0.2971341907978058 -0.5899383425712585 0.18621356785297394 0.1593598872423172 -0.3831145465373993 -0.14144282042980194 0.3321998417377472 0.15880773961544037 -0.18482477962970734 0.08891209959983826 -0.1292286515235901 0.31195464730262756 0.10397674888372421 -0.4058631360530853 -0.30721572041511536 -0.010409951210021973 0.2191273421049118 0.0338500551879406 0.2556815445423126 -0.042548324912786484 0.09137391299009323 0.27447137236595154 -0.11507882922887802 0.1407376378774643 0.059090036898851395 -0.05471980571746826 -0.024273276329040527 0.2709028124809265 -0.06634361296892166 -0.28228458762168884 0.055183395743370056 0.3616463243961334 -0.1374889761209488 0.06072370335459709 -0.04367223381996155 0.14180584251880646 0.06575917452573776 0.21800673007965088 0.07942769676446915 -0.13636447489261627 0.10651909559965134 -0.19783039391040802 -0.09807803481817245 0.25370508432388306 0.1214052215218544 -0.07499784231185913 -0.9427208304405212 -0.10394283384084702 -0.1325167864561081 -0.24555163085460663 -0.23687291145324707 0.20444409549236298 0.404727578163147 0.014259010553359985 0.027814378961920738 -0.41712450981140137 0.36109432578086853 0.3387211263179779 0.08611997961997986 -0.06702861934900284 0.1287459284067154 0.1094755232334137 0.23219411075115204 -0.2593778967857361 0.20646537840366364 -0.24727360904216766 0.15081392228603363 0.20796139538288116 0.0045382478274405 -0.29470983147621155 0.01574038155376911 0.19275222718715668 -0.305947870016098 -0.3616710603237152 -0.22451245784759521 -0.03803384676575661 -0.028628142550587654 0.15146411955356598 -0.28393056988716125 -0.2684498727321625 0.07937941700220108 0.06586804240942001 0.06086055934429169 -0.04741029068827629 0.05397127568721771 0.11450072377920151 0.11707893759012222 0.4419221580028534 -0.16311004757881165 -0.3539559841156006 0.18812532722949982 0.07122566550970078 0.010586057789623737 0.2639574706554413 -0.2870757281780243 0.055887043476104736 -0.041539568454027176 -0.1915677785873413 0.09557360410690308 -1.3807005882263184 0.2142620086669922 -0.09761261940002441 0.061035264283418655 0.022478923201560974 0.06818392127752304 -0.12647421658039093 -0.29317721724510193 -0.015870558097958565 -0.24306140840053558 0.08704391866922379 0.27897003293037415 -0.18232226371765137 -0.12157511711120605 -0.11407804489135742 0.25132259726524353 -0.10075149685144424 -0.13001090288162231 0.2502579987049103 0.13747991621494293 0.14639361202716827 -0.057987362146377563 -0.17506325244903564 -0.004962921142578125 0.060027241706848145 0.1075916588306427 -0.14434240758419037 -0.2817072570323944 -0.12785111367702484 0.008459235541522503 0.2153656929731369 -0.15781719982624054 -2.5852439403533936 -0.2515160143375397 0.4898033142089844 0.07768990844488144 -0.011217023245990276 -0.30456113815307617 -0.049965422600507736 -0.06156083941459656 -0.043159354478120804 -0.26034343242645264 0.21424907445907593 -0.33935776352882385 0.019687296822667122 0.12555889785289764 -0.10655540227890015 -0.04254121705889702
king 0.29058539867401123 -0.019390776753425598 -0.10508839040994644 -0.0573381669819355 -0.16512124240398407 -0.3055786192417145 0.34766530990600586 -0.1499774307012558 -0.12855391204357147 -0.3472326695919037 -0.014325954020023346 0.026048436760902405 0.06971404701471329 0.07513588666915894 -0.2634647488594055 -0.1508527249097824 -0.17023871839046478 0.09227510541677475 0.2535318434238434 -0.11355352401733398 0.10415329784154892 -0.19449765980243683 0.15074540674686432 -0.00025237599038518965 0.16745762526988983 0.295126348733902 -0.23983967304229736 0.1296253353357315 -0.10239294916391373 0.021266141906380653 0.05021899938583374 -0.18996910750865936 -0.16267496347427368 0.3133302628993988 -0.020245054736733437 -0.26631829142570496 0.16371272504329681 0.014808602631092072 -0.28997737169265747 -0.05275903269648552 -0.20748376846313477 -0.09345561265945435 0.25081002712249756 -0.0026159684639424086 -0.03670630231499672 -0.2081756740808487 -0.587936282157898 0.1062571108341217 0.005504357162863016 0.14365388453006744 0.0955648124217987 0.33935806155204773 -0.287372350692749 0.10676238685846329 0.3812820017337799 0.27127158641815186 0.04204924404621124 0.04314810037612915 -0.027330948039889336 -0.10778685659170151 0.1569051593542099 0.09289967268705368 -0.03496522828936577 -0.12440425157546997 0.18737374246120453 0.2897142171859741 0.23401273787021637 0.010608459822833538 -0.5400953888893127 0.07675226777791977 -0.23723268508911133 -0.28770899772644043 0.5193724036216736 0.01014647912234068 0.32662758231163025 0.012376387603580952 -0.17643101513385773 0.34471309185028076 0.18914006650447845 0.00721779465675354 0.2598671317100525 0.21182863414287567 0.13542896509170532 0.3218180239200592 -0.04996519163250923 -0.12183594703674316 -0.20563048124313354 -0.04138001427054405 0.046501051634550095 0.19979804754257202 -0.0028944809455424547 -0.10419372469186783 -0.04615737497806549 0.07751353830099106 -0.09106951951980591 -0.21799086034297943 -0.2854756712913513 0.03652496263384819 0.117089182138443 -0.19855177402496338 -0.08252375572919846 -0.24047720432281494 0.24283550679683685 0.29970383644104004 -0.2808118164539337 -0.05481918528676033 0.08548764139413834 0.3297424018383026 -0.06242009997367859 -0.7920303344726562 0.4170048236846924 0.13019397854804993 0.09636378288269043 0.060762207955121994 -0.18432487547397614 0.27609992027282715 0.05948680639266968 0.283722847700119 -0.01383259892463684 0.09872596710920334 -0.29314032196998596 0.10699355602264404 0.29637229442596436 0.6829759478569031 -0.00746069336310029 0.12822602689266205 -0.14551198482513428 -0.24513906240463257 0.08092007786035538 -0.21340365707874298 -0.08673010021448135 0.24392534792423248 0.08504719287157059 0.26185548305511475 -0.04078347608447075 0.4180586636066437 0.05605803802609444 0.07274838536977768 -0.20636940002441406 0.03293915465474129 -0.04569549486041069 0.3892614543437958 -0.9194431900978088 -0.27499786019325256 0.2835839092731476 0.17888416349887848 0.2285313606262207 -0.11488115787506104 0.22686369717121124 0.10250305384397507 0.371562123298645 0.15231312811374664 -0.21545207500457764 -0.028208689764142036 -0.2542409896850586 -0.01065861713141203 -0.13385216891765594 0.03756685182452202 0.33060193061828613 0.4412069320678711 0.0511210672557354 0.20643311738967896 0.005548546556383371 0.25759729743003845 -0.0723661407828331 0.031102851033210754 -0.15898744761943817 0.07371173799037933 0.09150982648134232 0.0355026014149189 -0.6008403301239014 -0.15411211550235748 0.19348961114883423 0.1996719241142273 -0.18981511890888214 0.1948278546333313 0.1622891128063202 0.0365176685154438 -0.09440162032842636 -0.1089734435081482 -3.419050455093384 0.017732203006744385 -0.0442085899412632 0.0009474456310272217 0.1720486730337143 0.03818424418568611 0.15214207768440247 -0.2745208442211151 0.010290783829987049 -0.2161521166563034 0.024130621924996376 -0.2345038205385208 -0.06551788002252579 0.1843414157629013 0.30576929450035095 -0.1344507485628128 -0.04854738712310791 -0.3583733141422272 -0.09738502651453018 0.05734677240252495 -0.09866876155138016 -0.21162049472332 0.07770977169275284 0.23208968341350555 -0.13804012537002563 0.7698063254356384 -0.05428127571940422 -0.24691058695316315 0.2745918333530426 0.08301573246717453 -0.6155338883399963 0.1544732302427292 -0.13198041915893555 -0.1997632384300232 0.15875326097011566 -0.2575558125972748 0.20540039241313934 -0.19012482464313507 -0.2578669488430023 -0.2180640697479248 0.06433945149183273 0.0031594138126820326 -0.076722651720047 0.16544179618358612 -0.14737816154956818 -0.18494395911693573 0.3517226278781891 0.2272353619337082 0.12754924595355988 -0.30382177233695984 -0.07356826215982437 -0.002670586109161377 0.0766666904091835 0.020531876012682915 -0.30941101908683777 0.14916594326496124 -0.06759326905012131 0.004060367587953806 -0.1254902184009552 -0.26750123500823975 -0.10132882744073868 0.12576602399349213 0.18682698905467987 0.24747514724731445 -0.2060827761888504 0.04961983487010002 0.16496552526950836 0.23659265041351318 0.18906819820404053 -0.20210771262645721 0.021574944257736206 -0.5538218021392822 0.09291579574346542 -0.30185267329216003 -0.034285396337509155 0.06340988725423813 -0.1514570116996765 0.02059745602309704 0.28060483932495117 -0.1503964364528656 -0.005406776908785105 0.31093859672546387 0.4668075144290924 -0.08632861822843552 -0.2184826135635376 0.21640248596668243 0.03130985423922539 0.17230074107646942 0.09261572360992432 -0.01031649112701416 -0.1606445461511612 -0.10640621185302734 -0.12723685801029205 -1.403933048248291 -0.03556568920612335 -0.2925073802471161 0.36520686745643616 -0.09028429538011551 0.12132829427719116 -0.20745468139648438 -0.023199796676635742 0.3887324631214142 -0.06317073851823807 0.3126350939273834 0.40964770317077637 -0.5116292238235474 -0.038361769169569016 -0.40656259655952454 0.08983417600393295 -0.34556832909584045 -0.15200351178646088 0.06612785905599594 -0.07485738396644592 0.18271441757678986 0.28125908970832825 -0.029405584558844566 0.24960802495479584 0.1484985202550888 -0.0779566839337349 -0.19055838882923126 -0.24990670382976532 -0.06941413134336472 -0.23888760805130005 -0.08570485562086105 0.21521683037281036 0.1627187877893448 0.18187807500362396 0.1385786235332489 -2.144251823425293 -0.1998245120048523 0.004727810621261597 -0.39270320534706116 0.25273239612579346 -0.06666184216737747 0.19114990532398224 -0.10214492678642273 -0.03376948833465576 -0.08724179118871689 0.12418290972709656 -0.32953450083732605 0.27476370334625244 0.04754069447517395 0.3161791265010834 0.1448097676038742 -0.07458024471998215 -0.3120213747024536 -0.2815682291984558 0.00811070203781128 0.12434329837560654 0.11749035865068436 0.1169034019112587 -0.25256094336509705 0.3164815902709961 0.21991503238677979 -0.31948205828666687 0.058570992201566696 -0.40764036774635315 0.04339240491390228 -0.19895626604557037 -0.11293766647577286 -0.127554252743721 -0.3012763559818268 0.07862556725740433 -0.08616740256547928 0.08025038242340088 0.17310841381549835 0.42641696333885193 0.013842788524925709 0.08546719700098038 -0.02862405776977539 0.06498687714338303 -0.1664828509092331 -0.059431493282318115 -0.09195218235254288 -0.2110261172056198 -0.4003477096557617 0.012936624698340893 0.2646103501319885 0.09393326193094254 -0.026364168152213097 0.1515168398618698 -0.21781086921691895 -0.0828922912478447 -0.10436209291219711 -0.013077323324978352 0.39231666922569275 -0.06328728795051575 -0.04462932422757149 0.3993893563747406 -0.22745053470134735 0.21806298196315765 0.2854786813259125 -0.19386713206768036 -0.18462102115154266 0.14485794305801392 0.13241972029209137 0.02075737714767456 0.08946258574724197 -0.16359597444534302 -0.23035557568073273 -0.15141165256500244 -0.9861385226249695 -0.5257670283317566 -0.07433655858039856 -0.44929924607276917 0.1928383857011795 0.3108902871608734 -0.11491187661886215 0.19708377122879028 -0.0006096313591115177 0.18936409056186676 0.31732577085494995 -0.04604269936680794 -0.09488973766565323 -0.13943149149417877 -0.15577779710292816 0.05302651599049568 0.08212405443191528 -0.06156553700566292 0.13709008693695068 0.026246270164847374 -0.023087026551365852 0.3079755902290344 0.05934108421206474 0.0733816996216774 -0.41466763615608215 0.21982018649578094 -0.021508201956748962 -0.29609543085098267 -0.33929893374443054 0.250217080116272 -0.15397150814533234 -0.14174343645572662 0.09081453084945679 -0.47392740845680237 -0.007672687526792288 -0.30260607600212097 0.12865407764911652 0.11210387200117111 -0.26454487442970276 0.2439855933189392 -0.023134341463446617 0.2261054664850235 -0.4552963674068451 -0.08936252444982529 0.5764245986938477 -0.077420674264431 0.2502080202102661 -0.0597289614379406 0.23023290932178497 0.08496811985969543 0.029870817437767982 0.10596426576375961 -0.009425078518688679 0.1651286631822586 -0.1909911185503006 -0.09198077768087387 -0.13613051176071167 0.11168814450502396 -0.018652180209755898 0.0024736833292990923 -0.49518752098083496 -0.13545934855937958 0.02553093433380127 0.13919241726398468 0.20413608849048615 -0.02825329639017582 0.3114967942237854 0.24496035277843475 0.23792199790477753 -0.2343655377626419 0.27713510394096375 -0.09731310606002808 0.28250935673713684 -0.2307114154100418 0.38044214248657227 0.3503609597682953 0.43119752407073975 0.19503164291381836 0.05993076041340828 0.42002037167549133 -0.2965509593486786 -0.0766083225607872 -0.30781373381614685 0.34456920623779297 -0.008776555769145489 -0.2510588467121124 0.08069120347499847 -0.13773013651371002 0.11334053426980972 -0.2602846622467041 0.19466112554073334 -0.04529905319213867 -0.12775425612926483 0.15264874696731567 -0.26103734970092773 -0.10062942653894424 0.2538329064846039 0.39496099948883057 -0.2625490427017212 0.08092612028121948 -0.05945022776722908 -0.15627910196781158 0.23792381584644318 0.012668370269238949 -0.35361456871032715 0.05332866311073303 0.18702606856822968 0.08096405863761902 -0.24582719802856445 0.10330912470817566 -0.037242818623781204 0.11594855785369873 0.0331432931125164 -0.16058214008808136 -0.47583141922950745 0.07286601513624191 0.35339340567588806 0.15559546649456024 -0.20333600044250488 -0.3921661376953125 -0.144009530544281 -0.4935765266418457 0.18446023762226105 0.3771260976791382 0.24779343605041504 0.39315953850746155 0.3091425597667694 0.16988547146320343 0.12731461226940155 -0.2636326253414154 0.12266788631677628 0.003044992685317993 -0.2330804467201233 0.3864192068576813 0.03308969363570213 -0.17768268287181854 -0.0011660655727609992 -0.06533092260360718 -0.42145678400993347 -0.181290864944458 -0.025411898270249367 0.07906509190797806 0.09583977609872818 0.16924750804901123 -0.05136981979012489 0.40446338057518005 -0.2315082550048828 -0.16304539144039154 -0.29689547419548035 0.07708460092544556 0.025393953546881676 -0.06989143043756485 -0.260635644197464 -0.2174675464630127 -0.26772117614746094 -0.10553249716758728 -0.07150337100028992 0.22604353725910187 0.4481991231441498 -0.22776074707508087 0.10067053884267807 0.3617265522480011 0.1361943781375885 -0.34072181582450867 0.05861340090632439 0.023357728496193886 0.06948179006576538 0.026924550533294678 -0.31721752882003784 -0.21110592782497406 -0.029208490625023842 0.16441033780574799 0.10660745948553085 0.058254361152648926 0.5546905994415283 0.2685355842113495 -0.14902766048908234 -0.19561176002025604 -0.009017949923872948 0.1843898743391037 -0.12698541581630707 0.07361037284135818 -0.377091646194458 0.11770537495613098 0.16724693775177002 0.1718478947877884 -0.2186623364686966 -0.18709886074066162 0.15685057640075684 0.30447840690612793 -0.13724105060100555 0.010987967252731323 0.1798790693283081 -0.1253373771905899 0.011681701056659222 0.18571291863918304 0.3546410799026489 -0.40411272644996643 -0.024086376652121544 -0.23551952838897705 0.31517475843429565 -0.39720675349235535 -0.021243780851364136 0.14888785779476166 -0.3003731071949005 -0.3997530937194824 -0.07144349068403244 0.6817092299461365 0.47835972905158997 -0.15470828115940094 -0.057115588337183 0.09288438409566879 -0.04584665223956108 -0.08178960531949997 0.10939320176839828 -0.02961733378469944 -0.28457894921302795 0.3882235586643219 0.21222998201847076 -0.058134157210588455 0.272668719291687 -0.11152146011590958 0.14481233060359955 0.016175081953406334 0.07192369550466537 -0.3900662362575531 0.0595548041164875 -0.14810054004192352 0.3883626461029053 0.0820193961262703 0.042845696210861206 -0.12266209721565247 0.0574805848300457 0.07569605857133865 -0.02904515527188778 -0.03737429529428482 0.08275984227657318 -0.08736809343099594 -0.015147258527576923 0.1573742777109146 0.5099377632141113 -0.5793870091438293 0.005857696291059256 0.24861586093902588 -0.6438019275665283 -0.013091896660625935 0.30450356006622314 -0.03684794902801514 -0.10070987790822983 0.3386066257953644 0.11063637584447861 0.4208849370479584 0.2576093375682831 -0.6201546788215637 -0.2294679433107376 -0.004355728626251221 0.1645032912492752 0.09371312707662582 0.3417823016643524 -0.19842809438705444 0.270087867975235 0.10872093588113785 -0.1734088659286499 0.3091302812099457 0.11157288402318954 0.06762439012527466 -0.030359873548150063 0.17966842651367188 -0.06507096439599991 0.1729208379983902 0.05009501054883003 0.29986539483070374 -0.17090696096420288 -0.06964141875505447 -0.16910670697689056 0.13258768618106842 0.022041400894522667 0.007485255599021912 0.1909755915403366 -0.20935370028018951 -0.022883445024490356 -0.11374276876449585 0.06910542398691177 0.1065094992518425 0.0377984456717968 -0.07289464771747589 -1.229843020439148 -0.001975427148863673 -0.3470284044742584 -0.02898430824279785 -0.02994902990758419 0.04383678361773491 0.41614460945129395 0.2103177309036255 -0.1545814722776413 -0.3678574860095978 0.12761230766773224 0.5382852554321289 0.21051788330078125 -0.013164778240025043 -0.057618398219347 -0.02206403575837612 0.018860438838601112 -0.11683196574449539 -0.029162446036934853 -0.27574625611305237 -0.18732430040836334 0.0958625078201294 -0.08807019144296646 -0.19281215965747833 -0.2796069085597992 0.1890668272972107 -0.2231602668762207 -0.15957607328891754 -0.21637417376041412 -0.032670069485902786 -0.038259025663137436 0.26690673828125 -0.2745644152164459 -0.18437255918979645 -0.2255151867866516 0.19852234423160553 -0.15330490469932556 0.0870739221572876 0.10948771238327026 0.1474679708480835 0.40009140968322754 0.8317111134529114 -0.09029295295476913 -0.33922258019447327 0.041444044560194016 0.12202227115631104 0.0716022178530693 0.25040480494499207 -0.17058539390563965 -0.04898246005177498 -0.24535846710205078 -0.14620238542556763 -0.13383032381534576 -1.3460410833358765 0.1983545571565628 -0.2402334213256836 -0.06952410191297531 0.054776083678007126 0.0382934994995594 -0.14743094146251678 -0.19921541213989258 0.060498084872961044 -0.010199357755482197 0.17294752597808838 0.3451017439365387 -0.16802246868610382 -0.12933366000652313 0.07722827047109604 0.28197386860847473 0.04547550156712532 -0.1263551265001297 -0.003686656476929784 0.017566272988915443 0.047906357795000076 -0.10563904047012329 0.021480431780219078 -0.1330684870481491 0.17241322994232178 0.032594505697488785 -0.09682752937078476 -0.4618349075317383 -0.22692279517650604 0.14940761029720306 0.390216588973999 0.031855154782533646 -2.906247854232788 -0.5088844299316406 0.14519377052783966 -0.10704511404037476 0.288197785615921 -0.09117371588945389 0.18603728711605072 -0.09799537807703018 -0.07608900964260101 -0.28865960240364075 0.17823493480682373 -0.05867445468902588 -0.03272859379649162 -0.09462635964155197 -0.12148529291152954 -0.10685088485479355
